1807 128
i -0.7191041 -0.39782768 -0.04372929 -0.17208324 0.09391885 -0.42304692 -0.48464993 -0.5633577 -0.32623225 0.038451944 -0.5088546 -0.6330443 -0.1560465 0.78073597 -0.3070139 -0.51223737 0.54227614 0.30080202 0.636527 0.31140384 -0.09718233 -0.7032801 0.1040852 0.689824 0.2038561 0.29322818 0.19998896 0.12863635 -0.46324295 -0.019447273 -0.056210484 0.09417639 -0.41121805 -0.3818096 -0.54221123 0.1588859 -1.046607 -0.45902815 -0.17614 0.13473652 -0.9642856 -0.35576397 -0.112872 -0.087376155 0.6043812 -0.5089821 0.44790787 0.06527877 -0.60803074 0.653705 -0.16079511 0.22833948 0.42958355 -0.45939398 -0.046449263 0.46834743 0.20892476 -0.71886 0.31709003 0.46118563 0.10323705 -0.6722606 -0.09027303 -0.26785344 -0.43303704 0.4677537 0.33249867 0.5349212 -0.21400782 -0.6805367 0.040784318 -0.49025643 -0.18200772 0.72014415 0.116270505 0.37259302 0.6145534 -0.069899425 -0.18809032 -0.3368643 -0.39355266 0.6663715 0.59636754 -0.7595113 -0.646625 0.75084746 -0.7342986 -0.10011607 -0.042091347 -0.46969497 -0.52706164 0.6456553 -0.051294073 -0.12772273 -0.15072098 -0.424179 -0.21781696 0.15539978 -0.016715685 0.38982373 -0.13684906 -0.5947115 0.2613101 -0.063475154 0.054444607 0.0008655509 0.35149255 -0.24928294 0.14768484 -0.103383675 -0.52144426 0.0031230315 -0.057636105 -0.16824448 -0.20814973 0.21633089 -0.14794597 0.49413112 -0.025115423 0.1270011 -0.06069869 0.25787637 0.023269247 0.06730594 -0.24947459 -0.39188612 0.0457189 0.44321197
would -0.04126859 -0.047035363 -0.46538606 -0.26685852 0.934531 -0.15553765 -0.357816 -0.5304469 0.45745048 0.11370385 0.10147503 -0.19637461 -0.3833221 0.012100506 0.38384688 0.51616555 0.23363274 0.31325278 0.28544325 -0.1652373 -0.5624023 0.12878935 -0.7675879 0.38110572 0.11718878 -0.4160578 0.44088677 0.32470694 0.188408 0.2555833 0.19017085 -0.3329828 0.54432476 0.45994776 -0.6638838 -0.22750509 -0.11250428 -0.4104183 -0.16994746 0.40996125 -0.55666584 -0.26350805 -0.5587358 -0.06450168 -0.0037563993 -0.17659782 1.0836978 -0.18576229 -0.7046916 0.73966223 0.058028925 -0.44773346 -0.369348 -0.60414326 -0.03351523 0.84273934 -0.40122178 -0.42370376 0.36992785 0.5591434 -0.19726022 -0.50680804 -0.36578023 0.2736768 -0.38494733 0.4471234 0.33860075 0.5127129 0.29653892 0.02038762 -0.33021718 0.2320093 -0.34034345 0.26273197 0.14087394 -0.25395465 -0.05424345 0.24941657 0.1653914 -0.50709623 0.38726792 -0.43708614 -0.16444862 0.00627355 0.19093166 -0.3201648 -0.012496104 -0.15429589 -0.23270905 -0.1457779 -0.3079658 0.21787544 0.032278534 -0.11290539 -0.39242342 -0.080882676 -0.2047474 0.6294203 -0.013747598 0.6540227 -0.25731745 0.39685574 1.1078993 0.85744977 -0.7726692 -0.8327407 -0.10482656 0.20655444 -0.19810955 -0.06999097 -0.5326034 0.0634697 0.12943271 -0.67935145 0.92257935 0.30952862 0.092151016 -0.24146608 0.84932774 -0.7369779 -0.17906947 -0.053548872 0.13071568 0.70800513 0.2214235 -0.6413258 -0.16155623 -0.18901902
to -0.20077369 -0.23610851 -0.1887217 -0.087824054 0.6662773 -0.18725076 -0.36210594 -0.50136405 0.40262613 0.12661323 0.17738393 -0.62969154 0.05531562 0.337632 -0.08346524 -0.3269276 0.4503833 0.23066145 0.45081404 0.048683655 -0.5757109 -0.31055722 -0.094055474 0.49703076 0.14126344 -0.3724611 0.5299806 0.6564215 -0.07029402 0.021511551 0.13337968 -0.43540257 0.117547706 0.31244358 -0.8058781 0.3908072 -0.6125548 -0.6174605 -0.57016873 0.21884608 -0.8992523 -0.3956759 -0.65235436 0.28585356 0.14697577 -0.2303504 1.1865575 -0.38664457 -0.61507285 0.97103214 0.26590833 -0.24872799 -0.1862483 -0.82213104 0.12528843 0.321106 -0.36036417 -0.5198965 0.3571977 -0.0018437419 -0.40796104 -0.6705873 -0.6175041 0.21990457 -0.25061017 0.13527094 0.29186964 0.6083362 0.19224833 -0.38815442 -0.32267535 -0.26747277 -0.4886992 0.22801447 -0.0093632685 -0.48499337 0.35410386 0.7727042 0.5090283 -0.3026241 -0.051142108 -0.25136957 -0.052607656 0.26073128 -0.05595305 -0.25595024 0.10576946 -0.03304247 -0.117695354 -0.42086774 0.11813377 0.16451734 -0.0296713 -0.5298882 -0.55706143 -0.27372897 -0.038207866 0.47752595 -0.13858736 0.5201156 -0.31993794 0.044700373 0.74611753 0.630741 -0.38142473 -0.42793372 0.03547117 -0.09622287 -0.13158688 0.2710359 -0.32080215 -0.09154964 0.12650588 -0.51022565 0.29981983 0.08204639 0.10241529 0.21866336 0.65756696 -0.024025824 0.012491025 -0.27645063 0.0013424181 0.45255366 -0.0015307597 -0.70003307 0.05452378 -0.12831788
the -0.059767425 0.33578023 0.53523993 0.36844683 0.30415514 -0.67775637 -0.7319908 -0.5440333 0.23247997 -0.097955875 -0.058014117 -0.16419315 0.01720387 -0.37107322 -0.06167534 -0.6121462 0.605296 0.07302834 0.9415405 0.03739564 -0.16427752 -0.04803624 0.192782 0.09422962 0.28634185 0.47671226 0.13197918 -0.65757555 -0.09649724 -0.13585116 0.31550208 -0.084710635 -0.9024083 -0.703825 -0.30346158 -0.7176264 -0.55466485 -0.46223474 0.001157267 0.5304399 0.4023661 -0.22399215 -0.33668083 0.27904275 -0.6782616 -0.3362047 0.5312395 0.09332538 -0.61788225 0.272546 -0.055454697 -0.2645932 0.12736055 0.13873588 -0.3722471 0.67931986 -0.5651823 -0.11012296 0.07527409 0.23668571 -0.22308971 0.5376739 0.33408347 -0.1824071 -0.10403768 0.062073223 0.6172507 -0.3015117 -0.2537952 0.303017 -0.87871766 -0.16945761 -0.6268592 -0.05652588 0.6766093 -0.05115743 0.06387235 0.16920067 -0.34196073 -0.35776788 -0.14131117 0.476169 -0.40346918 -0.8305092 0.3882854 0.048621893 -0.104447864 0.14845778 0.38015732 0.7330873 -0.39858633 0.31757805 0.72715276 -0.057882145 -1.2680656 -0.19769494 -0.015732702 -0.255056 0.06959117 -0.21215785 -0.014927738 1.0226456 0.5218283 0.84603345 -0.3532673 0.03496591 0.24370338 0.14376163 -0.0101304855 0.38523844 0.5193778 -0.2072972 0.16789173 0.1621114 -0.037863687 0.13758351 0.6815774 -0.1618108 0.5593908 -0.79927015 -0.18537039 -0.12599275 0.08002664 0.43002576 -0.08216418 -0.4299793 -0.32873335 -0.4379639
my -0.2914085 0.29356158 0.4308387 0.32606137 0.34790665 -0.46476975 -0.99087185 -0.16814454 0.21937194 0.42146432 -0.3116616 0.31822404 -0.076787055 0.24218094 0.09080875 -0.6247648 0.33183965 -0.07910598 1.0654234 -0.34922305 -0.17822394 -0.543873 0.28200153 0.011698285 0.403116 -0.1080664 0.4377112 -0.71613353 0.23483351 -0.14757076 0.8544674 -0.6745483 -0.26034105 -0.30616358 -0.7983258 -0.44523734 -0.8375827 -0.5427681 -0.11954745 0.3325207 0.10863813 -0.34515798 -0.10046047 0.4813915 0.09367198 -0.34451824 0.48134243 0.43157274 -0.4561516 0.9632123 0.298006 -0.17997396 -0.43938023 -0.2136766 -0.33218825 0.49360096 0.22618026 -0.5658694 0.34487408 0.7262582 -0.2815804 0.6437305 -0.005484588 0.25570756 -0.40070733 0.16449292 0.2541799 -0.45492756 -0.6794912 0.41167423 -0.7041121 -0.5399806 -0.8531539 -0.19542235 0.85666853 -0.6693017 -0.12080816 -0.0880859 -0.12491735 -0.30315968 0.3628183 0.7502655 -0.3727642 -0.796743 0.025069214 0.31928664 -0.1251813 -0.25420487 -0.047058493 0.5149326 -1.0982745 -0.42406377 -0.07193452 -0.2747187 -1.1508045 0.31218925 -0.22493085 -0.36588493 -0.075028114 0.2858795 -0.1505229 0.8467943 0.71579075 0.2515878 -0.0892759 0.2444149 0.13867496 -0.817128 -0.542608 0.63124216 0.10569184 0.51773846 0.14470044 -0.41157538 0.17020637 0.08113291 0.50930023 0.5963309 0.82226694 -0.7572706 -0.25469378 0.21384017 0.5962394 0.19093904 0.28997922 -0.6399777 -0.27253345 -0.32655644
and -0.12499552 -0.14004713 -0.13493982 0.054489218 0.45856404 0.0844813 -0.45099545 -0.52214473 0.3377192 0.1736586 0.13090159 -0.47773105 0.46796164 -0.10739849 0.28155112 -0.42016554 0.3716549 0.2866666 0.51450855 0.3086395 -0.031169245 -0.1997291 -0.28981483 0.4650817 -0.03526333 -0.31375018 0.15661924 0.45780507 -0.25918496 0.036888853 0.42075184 -0.27951965 -0.35710227 -0.23530014 -0.5836421 0.42033947 -0.74298316 -0.38179785 -0.24562483 0.2182426 -0.49075744 -0.28433847 -0.52571636 0.2683582 0.036938395 -0.31182912 0.9400686 -0.2228531 -0.6702191 0.58015543 0.24113044 0.20664583 -0.19420454 -0.48847994 -0.19366917 0.01860509 -0.5435 -0.27369702 0.21658233 0.0149666155 -0.5169351 -0.38320157 -0.22156769 0.1076362 -0.25414726 0.17697504 0.25520965 0.5847853 0.09371935 -0.14304054 -0.46624112 -0.427303 -0.38454697 0.21041659 0.31267127 -0.3672848 0.2941504 0.42678687 0.08129526 -0.102733046 0.03470224 0.03591506 0.15658277 0.28089315 0.29371473 -0.054066677 0.42532244 -0.16288984 -0.1814626 -0.12592885 0.14787912 0.25881997 0.47195533 -0.14766432 -0.4947356 -0.2967844 0.05161706 0.059510984 0.16128115 0.21961477 -0.06860713 0.05213545 0.52510905 0.28765848 -0.022449803 -0.028383998 0.020221073 -0.038465187 -0.10263802 0.6040739 -0.24106143 0.026204202 0.059683625 -0.19317894 0.26465255 0.44160846 0.34660375 -0.27188465 0.36336643 -0.19373406 0.083869815 0.13607691 0.24348016 0.50211453 -0.33241814 -0.4857543 -0.11496859 -0.13249566
, -0.44560543 -0.34343776 0.15140171 -0.16173519 -0.053328257 0.16629493 -0.22183861 -0.19648214 -0.029913891 0.061031573 -0.3779685 -0.053011946 -0.015323131 0.3424296 -0.26389816 -0.3409047 0.31054592 0.07545107 0.48545158 0.26862326 0.036967088 0.13787837 0.13777561 -0.113536485 -0.14440392 0.13286969 0.3161106 0.15416415 -0.32042885 0.26103032 0.34108776 -0.0057149264 -0.009568724 0.21092784 -0.43128482 -0.018260574 -0.36055726 0.101149395 -0.045323744 0.13216105 -0.07048164 -0.24089223 -0.15484263 -0.12532267 0.49305272 -0.27409074 0.08970436 0.30662113 0.028399453 0.13461094 0.04321721 -0.010890986 0.016061155 0.009595321 -0.17224798 0.29941174 0.093698315 -0.07370046 -0.017754208 0.47113734 0.2619842 -0.15773132 0.029982354 -0.12570377 -0.118466765 -0.031504385 -0.06459504 0.3403898 -0.38470927 -0.057018656 -0.11275839 -0.11408685 0.20000812 0.2014556 -0.05600062 -0.20817837 -0.040538214 0.11225317 0.04886332 -0.007998512 0.30560598 0.15349598 0.052152462 -0.2986986 -0.14606223 0.1819256 -0.24392997 0.0020419138 0.1623173 0.27285117 -0.19367445 0.080533005 -0.032452058 0.022091543 0.11891929 -0.12252528 -0.09195999 -0.1064193 -0.13236006 0.15827703 -0.13358468 0.30729383 0.40705442 0.41417205 -0.2428803 -0.14452934 -0.13734485 -0.14863123 0.02834061 -0.07174287 -0.1920108 0.20238358 0.15953298 -0.2645259 0.55582404 0.06901748 0.013053236 -0.18215846 0.072107755 -0.23897095 0.12863106 0.10825122 0.1143443 0.31054878 0.460179 -0.6198213 -0.006442309 -0.054996602
it -0.5350185 -0.34359688 -0.12416498 -0.48466232 -0.07948004 0.11614562 -0.2876284 -0.21168825 -0.39238456 0.13207445 -0.66241074 -0.6410745 -0.34141448 0.50322187 -0.3772074 -0.16609298 0.0612794 0.45987293 0.4477978 0.41550362 0.054341104 0.05263911 0.09273899 0.032347012 -0.3537034 0.54599094 0.41616875 -0.027050072 -0.26564983 0.28919324 -0.2861899 0.44432142 0.07528876 0.059087165 -0.5556614 -0.013690659 -0.432333 0.20110007 0.010477176 0.15928613 -0.37878925 -0.36422795 0.098541155 -0.1486257 0.30458635 -0.4419517 0.44931814 0.38958725 -0.25968468 -0.13659722 -0.098229975 0.10070152 0.43815762 -0.42853826 -0.10867357 0.46799922 -0.14444794 -0.041280445 -0.091984116 0.3149399 0.26697233 -0.29367357 0.04480104 -0.58643717 0.12415207 0.17867236 0.07992387 0.65733784 -0.6532919 0.05362261 -0.29911786 0.175382 0.263807 0.7092342 -0.036803085 0.1729999 -0.026733419 -0.20350951 -0.022403881 -0.06309701 -0.2256289 0.17439167 0.20687118 -0.7791544 -0.5971744 0.30689248 -0.13639504 0.24861087 0.43223664 0.3022314 -0.10410328 0.53800976 -0.36092943 0.16296946 -0.06071462 -0.30084935 -0.010139714 0.18863636 -0.03101233 -0.146795 -0.13368556 -0.20290239 0.62728167 0.26583073 -0.23456585 -0.14333847 0.25113347 0.3852283 0.12762938 -0.32846937 -0.41856462 0.0557641 0.20163752 -0.0948885 0.36098057 -0.13634488 -0.34590158 -0.29868132 -0.29489785 0.23759048 -0.20034169 0.06269094 -0.022187378 0.43421036 0.16511086 -0.22870141 -0.19031022 0.28048056
if -0.3796886 -0.22702272 0.38717034 -0.07012229 -0.08325175 0.122904904 -0.48947346 -0.042670358 0.24211581 0.030178405 -0.2806893 0.19217032 0.11934937 0.7106539 -0.5681305 -0.47885883 0.2499383 -0.5040851 0.7088249 -0.30939496 0.21556172 0.12140301 0.053055596 -0.17024502 -0.12617055 -0.24895833 0.115139075 0.82681125 -0.7247756 0.3097481 0.88990533 -0.2177625 0.19983701 0.39730564 -0.6497806 0.331164 -0.49556795 0.2886903 -0.06540706 -0.011731452 0.23956384 -0.36971325 0.06421501 -0.2049368 1.0973386 -0.5061918 -0.34240207 0.6410227 0.6241609 0.28276026 -0.1840743 0.3317854 -0.16868992 0.21348444 -0.49773243 -0.18600881 0.5245557 -0.10544961 -0.08064924 0.54263103 -0.041882034 0.16726504 0.24301815 0.19895272 -0.25324747 -0.2723297 -0.532809 0.19626372 -0.63858956 0.06861242 0.47206044 -0.23077185 0.41198748 0.21321005 -0.06560995 -0.5845725 -0.21880814 0.073658936 0.085188076 0.1701988 0.60001963 0.69477946 0.09770512 -0.6017606 -0.37955242 0.7011287 -0.41341892 -0.21733649 -0.107674286 0.23521256 -0.46299648 -0.49747452 0.0011345865 0.24471767 0.4436873 0.23448826 -0.24830638 -0.38232258 -0.6444235 0.11198139 -0.032525856 0.35713166 0.4202417 0.051162165 -0.21215248 -0.024688479 -0.56121814 -0.8438226 0.13531221 0.20966046 -0.22581604 0.4270052 -0.07401973 -0.5240806 0.7019392 -0.33081356 0.42537934 0.38210186 0.3217329 -0.41058695 0.36253107 0.16573249 0.32628316 0.49129218 1.2813867 -1.2758491 0.31286287 -0.22167914
a -0.5266577 0.20837793 0.03707938 -0.34839946 -0.334078 -0.045626886 -0.1949461 -0.35889977 -0.19914465 -0.025819823 -0.38613856 -0.21292086 -0.056088895 -0.2784649 -0.08582394 -0.5539264 0.3520814 0.33080095 0.6419057 0.4639824 -0.05435986 0.42283154 0.32935122 -0.027345482 -0.34499285 0.41535676 0.3595387 -0.32010615 -0.041817676 0.30274612 0.27540162 0.40552515 -0.35421222 -0.34000784 -0.37403065 0.17708479 -0.16260895 -0.11807758 0.0407596 0.2328235 0.01147639 -0.14757632 -0.3514365 0.026821062 -0.28562385 -0.34741503 0.85548717 0.1777451 -0.5412985 -0.2242753 0.35022742 -0.16898884 -0.20559992 -0.2382677 -0.1411947 0.5508294 -0.72567326 -0.17832847 0.11007199 0.6356605 0.3102462 0.12451208 0.09875091 -0.3466443 0.41848683 -0.06482581 0.18678647 0.6598679 -0.49493444 0.36769718 -1.1057494 0.059581134 -0.01807032 0.3129451 0.28979445 -0.31762403 -0.24508128 0.31754968 -0.25535938 0.0077574025 0.2917189 -0.13842764 -0.29253876 -0.30794513 0.11990679 -0.32357177 0.372093 0.10572713 0.56403637 0.774086 -0.028811581 0.48371187 0.24654457 -0.22115546 -1.0415002 -0.36735407 0.07399589 -0.09260317 0.15373328 -0.2837006 -0.16641878 0.2749883 0.58889395 0.86583585 -0.23075862 0.291149 0.21371526 0.54276353 -0.061482944 0.08433555 0.14033523 0.24275486 0.40055254 0.071397856 0.20279588 0.4393818 0.18860649 -0.44112962 -0.102096334 -0.0013322231 -0.05302819 0.09180305 0.12608029 0.57202333 -0.2328255 -0.2941802 -0.6539227 -0.33585244
that -0.23752865 0.0110563645 0.43581775 -0.14549766 -0.18234624 0.026985336 -0.43566674 -0.23946482 -0.11014648 0.03286551 -0.16692056 -0.22147147 0.26785508 0.4778303 -0.5796356 -0.4428185 0.12312297 -0.35164714 0.5629761 -0.14164574 0.2498752 -0.08728464 0.19694896 -0.04453694 0.20443644 0.108037956 0.11131041 0.39404646 -0.8000379 -0.021104611 0.3563892 0.14140344 -0.24031654 -0.07480238 -0.33534032 0.17479229 -0.36223555 -0.111020096 0.07143698 -0.01373385 0.072291434 -0.25536188 -0.03249108 -0.06356558 0.4422019 -0.31244344 -0.07901659 0.07578895 0.06208643 0.15164144 -0.47618762 0.2759031 0.10741006 0.06714498 -0.34064716 -0.058533993 0.07485481 -0.14935619 -0.13420342 0.15340583 -0.3378416 -0.018069655 0.1198006 -0.070195235 -0.19846717 -0.15604623 -0.31073177 0.075418174 -0.20654368 -0.15547097 -0.042092893 -0.13279465 0.31606087 0.016926935 0.0008790046 -0.3249135 -0.0982317 0.09029225 -0.10376526 0.17615391 0.17246775 0.6103647 0.115669265 -0.501956 -0.31393045 0.44510105 -0.31470156 0.03838214 0.307659 0.22756469 -0.2913694 0.2196312 0.48906714 0.44869477 0.09278564 -0.022915494 -0.23271391 -0.082588375 -0.34141296 -0.16847917 -0.11506682 0.42894873 0.41310632 0.21041228 -0.14952616 0.26341555 -0.25190562 -0.63888323 -0.03444671 0.0847315 -0.051206324 0.23408423 -0.22590046 -0.07219403 0.29901963 -0.117808536 0.29609132 0.011931839 0.04327264 -0.1708518 0.25604776 0.0430695 0.08158077 0.32865086 0.6516974 -0.74181443 0.16796304 -0.14603847
be -0.82923096 -0.899712 -0.35679057 -0.22113517 -0.41795865 0.82068336 -0.034083247 -0.16248667 -0.49436128 0.07598546 -0.63585407 -0.31117022 0.046954267 0.69905406 -0.09422676 -0.70858276 0.784912 0.61080724 0.10100102 1.108037 0.45891085 0.21987465 0.26299363 -0.7428581 -0.2291339 0.51206416 0.6031791 -0.31109625 -0.09255287 0.441845 -0.10397903 0.22231598 0.08121244 -0.0846241 0.06229884 -0.3636586 -0.42091233 0.38031793 -0.119794756 0.30965695 -0.11306102 -0.024183253 0.48924717 -0.11824276 0.66934615 -0.30945286 0.06808362 0.051491532 -0.08191505 -0.37602934 0.24394152 0.39308023 -0.009008324 0.06817981 0.03370592 0.12989217 0.27851287 -0.036788497 0.014317979 0.3967811 1.0945802 -0.26208147 0.03297613 -0.37099734 -0.07470296 0.06553885 -0.17331776 0.4991407 -0.76644546 0.090829834 -0.33018127 0.1170649 0.47887024 0.17633453 -0.5552507 0.5278678 -0.44830233 -0.20379114 -0.044170488 0.21897961 0.008717561 -0.24779098 0.31911314 -0.30901927 -0.14272158 0.13792819 -0.15033847 0.13840304 0.24328464 0.38272077 0.016839113 0.6205112 -0.4919355 0.10243328 0.031877883 -0.24955004 -0.1022975 0.038554657 0.46136126 0.13863313 -0.54322267 -0.069403306 0.24918728 0.12090565 -0.2806519 -0.075849466 0.300586 -0.15328199 0.08940203 -0.55484086 -0.72750646 0.584408 -0.018860018 -0.19208671 0.6753935 0.63972574 -0.46651378 -0.6425008 -0.40539765 0.05027066 0.16601788 0.35267895 0.09141564 -0.11441869 -0.04519852 0.11256992 -0.39642528 0.21705452
of 0.19229057 -0.25890756 -0.09432482 0.081442855 0.26974598 0.09147135 -0.080063246 -0.061829302 0.0828933 -0.14223279 0.16432707 -0.3215984 0.3437817 -0.3314019 0.20069826 -0.36900705 0.51466566 0.13586298 0.004419198 0.8405219 0.18701576 0.117328696 -0.118828274 0.119667016 -0.52957195 0.6445424 0.011778101 0.13050728 -0.25073937 0.36083063 0.19564532 -0.047845367 -0.041519884 -0.20305093 0.062377475 -0.14971717 -0.43694755 -0.18446617 -0.14874749 0.5716057 0.3452438 0.09613151 -0.418225 -0.4116376 -0.7206704 -0.35218307 0.35070333 -0.31841195 -0.3944273 0.04285579 0.0548296 0.121427074 0.04437978 -0.38789564 -0.15846092 0.23847508 -0.97372276 0.5232778 -0.13477336 -0.1040029 -0.18189427 -0.3098439 0.40708596 -0.17818187 -0.20984356 0.005794856 0.109903954 0.77091676 -0.024652435 0.38202447 -0.88926697 -0.6801941 0.10596776 -0.32022375 0.46528965 0.16926101 -0.27416283 0.36025986 -0.04369741 0.20809841 0.14839219 0.021362197 0.18709572 0.34627992 0.54270595 -0.28064802 0.12692969 -0.02714577 0.23301427 0.616116 0.3449738 0.8805012 1.0038168 0.054151136 -0.61842 0.1405307 0.09341757 -0.49636814 0.0046784957 0.19881134 -0.18959312 0.59263974 0.33800033 0.23755088 -0.22538903 -0.16484678 -0.04296561 0.30595368 0.15517755 0.2230448 -0.21042986 -0.14373124 0.03434174 -0.23648793 0.051747695 0.31083095 0.2416714 -0.29376546 0.34046248 -0.16724715 0.43899092 -0.27880237 -0.017694414 0.2514681 -0.036998205 -0.3959226 0.04489686 -0.32410327
this -0.40744567 -0.089414224 -0.20311871 -0.15272418 0.25202823 -0.30767658 -0.6613004 -0.5784939 -0.40850744 -0.0028340153 -0.4315713 -0.6665361 -0.25204623 0.30802533 0.10000008 -0.21450609 0.37340873 0.71215075 0.51107806 0.5229042 0.133334 -0.06847831 -0.21168019 0.1481047 -0.02140785 0.73379475 0.42815834 -0.48107713 0.0064566396 0.07921366 -0.31010148 0.3834843 -0.28973824 -0.5214955 -0.20862423 -0.65393233 -0.19405809 -0.2780642 -0.10597666 0.4423188 -0.35670587 -0.09563974 0.16106105 -0.07013043 -0.2007715 -0.43382615 0.83909076 -0.06642161 -0.72817296 -0.0068999636 -0.31892565 0.1329084 0.24510202 -0.54057044 -0.048429616 0.7778919 -0.32702297 -0.4750961 0.09431017 0.40066728 0.110608414 -0.02544807 0.10063627 -0.53199905 0.0016847701 0.38790467 0.4340023 0.31904492 -0.4219831 0.1702316 -0.74014646 0.4004217 -0.111397475 0.4642645 0.1195058 0.41555727 -0.24485348 -0.24973941 -0.16757813 -0.37800768 -0.43285158 0.19062485 0.014496827 -0.9322754 -0.021764223 0.33342642 -0.09598597 0.33713284 0.34722182 0.4351595 -0.59757274 0.89556265 0.19089875 0.1724579 -0.7132607 -0.26255208 -0.07646508 0.44186684 0.2065817 0.13516481 -0.27381408 0.15911296 0.77423054 0.5038326 -0.44896817 -0.042427655 0.48236936 0.2583475 0.15346362 -0.30451077 -0.57418287 0.040656228 0.050348632 0.03673663 0.2812384 0.51953745 -0.048739526 -0.4520671 0.041429438 -0.5914518 -0.46080208 0.44861397 0.06582815 0.36061352 -0.2639069 -0.19270869 -0.31042585 0.17193843
not -0.5531876 -0.42844057 0.013691787 -0.25941005 0.05829145 0.11023281 -0.25676546 -0.22206748 0.11843534 0.1819296 -0.7294446 -0.49713278 -0.28730804 0.8945886 -0.5540091 -0.25281224 0.08600858 0.25286442 0.609263 0.24145387 -0.15705156 0.10746208 0.31117868 -0.090613335 -0.13593385 0.10462495 0.49872416 0.2742445 -0.53036606 0.3182818 -0.00929582 0.18932895 0.07392633 0.39398798 -0.974666 0.15202586 -0.37315643 0.31107962 -0.24542715 -0.0321769 -0.47455356 -0.41643986 0.22588913 -0.045337252 1.0586494 -0.5425257 0.058000963 0.27880275 0.1006872 0.029687267 -0.181243 -0.026547013 0.025424948 -0.35292456 0.085367605 0.38432515 0.48752543 -0.3024174 -0.0016818922 0.56442744 0.19169606 -0.22123556 -0.027872927 -0.10649304 -0.024638444 0.014307793 -0.035531618 0.52523166 -0.53965 -0.14172733 0.3838397 0.36831632 0.18232849 0.72357243 -0.42446557 -0.22147177 0.08783999 -0.04607069 0.16685945 -0.24061969 0.0821146 0.06805739 0.06314285 -0.7739076 -0.63731337 0.4385147 -0.44824025 0.018981205 0.26690578 0.23069702 -0.3255468 -0.21126515 -0.54232097 -0.12879753 0.30207977 -0.3062532 -0.078195386 0.29960537 -0.1124103 0.2023099 -0.27575815 -0.120829105 0.4183657 0.42147827 -0.41509137 -0.179974 0.010575531 -0.15933737 -0.09108159 -0.36281845 -0.22505762 0.22258566 0.20962803 -0.26902643 0.6415778 -0.28643966 0.0109989615 -0.3844899 -0.039055094 0.026721518 -0.0704766 0.11971459 0.054378107 0.7240235 0.845193 -0.6486225 -0.0135012055 0.06813221
for -0.0018657898 0.18207034 -0.08967823 -0.115923904 -0.11830301 -0.0023465098 -0.20570289 -0.1367873 -0.08729683 -0.06992473 -0.053772826 -0.28866932 0.043790214 0.015014888 0.104338184 -0.25342476 0.2942329 -0.11779949 0.03351047 0.3311088 0.3341907 0.18999727 0.07044398 -0.0031807113 -0.15181452 0.07988052 0.017859315 0.15454638 -0.36427706 0.50031054 0.5330999 0.06115473 0.08011379 0.02053347 -0.14371239 0.1717464 -0.08995838 -0.30978975 -0.31865197 0.33361328 0.14323089 0.0082901195 -0.23278672 -0.48914397 0.028080031 -0.48394302 0.31949422 -0.30372578 -0.2871462 0.11311753 0.29652125 0.040159944 -0.45966873 -0.5314862 -0.12463307 0.41563818 -0.5748821 -0.13630241 0.2694941 0.5495391 -0.19331473 -0.1392527 0.090477996 0.28441483 -0.17530437 -0.16946088 -0.16834408 0.6167726 0.10157384 0.11437024 -0.57213557 -0.2992446 0.36028695 -0.10200401 0.20805533 -0.26505902 -0.54967654 0.2855617 -0.014071232 0.2208342 0.41561854 0.10201177 0.13764516 0.13911493 0.2897889 -0.11447066 -0.05811932 -0.13850217 0.10363266 0.4182696 -0.20415258 0.37726662 0.6126415 0.1459225 -0.5743144 0.23492095 -0.06695713 -0.16276665 -0.046273112 0.14502142 -0.3918402 0.31472963 0.26318988 0.23281896 -0.07449136 0.10354792 -0.15974697 -0.016380241 0.15901639 -0.12863806 -0.33647966 0.35933712 -0.1304379 -0.24846525 -0.03377556 0.29032922 0.31210867 -0.11191209 0.2180301 -0.27026564 0.4277389 0.06520467 0.082014695 0.34611177 0.41278893 -0.46753982 0.10738348 -0.37180975
in 0.049103543 0.032120798 0.038890135 -0.050769426 -0.10161108 -0.12188956 -0.104298845 -0.076280706 -0.13800298 -0.15285246 -0.009699478 -0.22932264 0.22196196 -0.07108065 -0.09321223 -0.46503803 0.6165724 -0.12838471 0.21274398 0.5389922 0.22412087 0.0633492 0.22181587 0.10953536 -0.14673404 0.51109225 -0.005743095 0.17467299 -0.452829 0.15547822 0.226059 0.0993952 -0.17964661 -0.29156625 0.067102656 -0.047417853 -0.24832803 -0.3151177 -0.14078474 0.266282 0.2579919 0.116588935 -0.27654523 -0.44703776 -0.36818507 -0.37917992 0.2641595 -0.41580135 -0.36280394 0.088853694 -0.11609387 0.09477787 0.048326608 -0.28249377 -0.22254984 0.33201656 -0.6532365 -0.026038349 0.07148905 0.1276065 -0.16397178 -0.27615306 0.30813253 -0.104631886 -0.03361995 -0.20305601 -0.14939879 0.59822416 0.05054149 0.15831317 -0.8220114 -0.43000656 0.30551878 -0.27660245 0.27816656 0.08546704 -0.25031927 0.35304075 0.067019194 0.21144462 0.13965994 0.03400531 0.10993007 0.098699816 0.24021286 -0.11170054 -0.09613143 0.09010044 0.4090253 0.49473402 0.07865478 0.87529117 0.9804154 0.09657881 -0.6343662 0.10315436 -0.21305381 -0.25066277 -0.12469335 0.0743984 -0.32688344 0.52562976 0.23596586 0.24805224 -0.16591601 0.15748453 -0.06555931 -0.11794679 0.23174888 -0.11864554 -0.073197074 -0.015139567 -0.12661226 -0.09455635 -0.0010799787 0.20553145 0.31405258 -0.054931 0.14693953 -0.08031391 0.38347885 -0.33522734 -0.25563502 0.18470806 0.0809771 -0.47411117 -0.038096283 -0.27148968
is -0.26001322 -0.6296008 0.053081825 0.28302035 0.5400616 0.3323775 -0.22961709 -0.20687293 0.61920136 0.25468966 -0.31792083 -0.6805413 -0.10283944 0.26265204 -0.09199648 0.006019203 0.353004 0.8626093 0.2876434 0.90403706 -0.055628877 0.96040124 -0.09240722 -0.6470753 -0.30987173 0.19369498 0.17470968 0.04393177 -0.78505296 0.70358413 0.17946881 -0.13279648 -0.13171153 -0.026831347 -0.26047364 -0.05050544 -0.8717343 0.52732646 -0.3678928 0.35797745 -0.17811252 -0.06868317 -0.05189385 -0.23178343 0.25602698 -0.71261644 -0.2723949 0.036730617 -0.27978486 -0.09804985 -0.17097454 -0.14254656 0.09406152 0.115962945 -0.044207036 -0.30445907 -0.116403095 0.731942 -0.25331804 -0.081222475 -0.037659407 0.08122877 0.60605556 0.31386796 -0.14204744 0.102182135 0.12968855 0.818889 -0.8200827 0.4957775 0.22405611 -0.1464084 0.39275438 0.32987773 -0.1534987 0.459369 -0.6330242 0.04026751 -0.0034733124 -0.18415262 0.23662129 -0.07172637 0.2743604 -0.13457207 0.14513099 0.14687067 -0.17426623 -0.11947979 0.15877664 0.6643001 0.18132877 -0.052959308 0.005885684 0.62179315 0.023388455 0.22409132 0.14384325 -0.19982055 0.20864052 0.15451004 -0.058558557 0.28068352 -0.08761108 0.050444826 -0.20156452 -0.4812104 0.08809144 0.10174158 0.060244273 0.48039538 -0.28138295 0.064744845 -0.14083464 -0.40467054 0.44841826 0.22467427 0.23860091 -1.17267 0.13944152 -0.26317522 0.25768515 0.15690187 -0.0025561925 0.48792034 0.40466306 -0.36484468 -0.37992403 0.038342807
with 0.11110165 -0.23585105 -0.089369185 0.49139303 0.73755735 0.37360662 -0.5610802 -0.34435615 0.74796003 0.40711236 0.042564176 -0.7173095 0.15035938 0.17012864 0.54067355 -0.4455877 0.20549576 0.27320048 0.37798923 0.3401566 0.022012942 -0.3381842 -0.059911452 -0.09793502 0.034378454 -0.4006555 0.15906656 0.0380991 -0.047980607 0.43208432 0.33586767 -0.6924044 -0.13600786 -0.012922954 -0.8776915 0.06457609 -1.0870506 -0.5140918 -0.6698822 0.70614475 -0.09391286 -0.32851553 -0.004098032 0.5294384 0.14998895 -0.6584993 0.5832182 -0.31086886 -0.7045119 0.6754927 0.64937997 0.20394741 -0.75205433 -0.8027862 -0.15927696 0.004118677 -0.30887586 -0.046289463 0.29684088 0.13148747 -0.8717561 0.19745004 -0.11731429 0.5727751 -0.6778529 0.27547067 0.5103905 0.20525266 -0.14651498 0.3404701 -0.38402906 -0.5498854 -0.73661155 0.13392268 0.3731388 -0.3781352 -0.16649526 0.3170952 0.022291102 -0.04538343 0.14072831 0.32407054 0.2527493 0.07100317 0.29810762 0.02023761 0.47798008 -0.35538185 -0.36911938 0.17632614 -0.19691919 -0.21920839 0.10499762 -0.055129815 -0.7832836 0.061261665 0.18095152 -0.16502479 0.63598347 0.18093541 -0.3723255 0.49134478 0.22299443 0.018326221 -0.11046744 -0.22915278 0.28330502 -0.054412648 -0.5163715 0.7222774 -0.02509723 0.39709657 0.14718454 -0.37563336 -0.021900149 0.042024374 0.62317425 -0.37402937 0.61723816 -0.32463604 0.11419571 0.0019140145 0.4849311 0.59296167 0.20882359 -0.11985951 0.17244336 -0.22605935
me -0.35153836 0.06647547 -0.048468553 0.016897395 0.21845582 0.5217428 -0.24157912 -0.11288405 0.32311743 0.3244497 -0.53663504 -0.5447017 0.09960098 0.64096004 -0.034898248 -0.33221126 0.5428867 -0.5315366 0.4970439 0.2627868 0.3562613 0.08133978 0.84238666 -0.73274624 0.73320794 0.26505363 0.102037326 -0.18410432 -0.53789765 -0.21811442 -0.047014154 -0.19506603 0.08646668 0.024236843 -0.73753166 -0.4670268 -0.44750747 0.04552613 -0.359078 0.37952042 0.24962479 0.027128153 0.8100777 0.09456506 0.34916988 -0.6236425 -0.0741863 -0.62301 -0.37716287 0.25725183 -0.29808643 0.091229446 -0.6352765 -0.30363524 -0.5171352 0.3219816 0.15060422 -0.34515858 0.07615092 0.23851888 -0.47709173 0.45594284 0.31415498 0.06656787 -0.12647368 -0.029616166 -0.045970663 -0.04774608 -0.10658852 0.6463778 -0.32999983 0.27286494 0.1486863 0.023178263 -0.3848944 -0.0967055 -0.5361543 -0.2429505 0.19781967 0.42011812 -0.086535424 -0.18277325 -0.15454753 -0.80147254 -0.4544822 0.04431565 0.03315346 0.19879934 0.5025444 0.38769123 0.018496005 0.518543 0.08578639 0.4051063 -0.91577834 0.16686237 -0.35275605 0.30961683 0.28213757 -0.5397901 -0.53305215 0.64097226 0.30541888 0.057229 -0.11010007 0.3182701 0.45554787 -0.51842165 -0.3917632 -0.604183 0.40897173 0.43345514 -0.1856576 0.15488382 0.3067617 -0.5891066 0.17506933 -0.08602772 0.04946777 0.29947534 -0.012416062 -0.64997905 -0.54199636 0.37722272 0.83358604 0.17940728 -0.31239542 -0.1233051
go -0.40886483 -1.1465076 0.13252787 0.26730204 0.8422835 0.45386606 -0.4566969 -0.06192893 0.8220531 0.50912154 -0.59980965 -0.42164844 -0.7575874 1.4075391 -0.510184 -0.36145654 0.5125227 0.071476154 0.8132161 0.05018073 -0.6454742 -0.42073894 0.612601 -0.79970205 -0.16536081 0.051477008 0.64839315 -0.20901158 0.17576489 0.59984684 -0.11555597 -0.8494465 0.5248094 0.849732 -1.1258767 -0.7852442 -1.4591044 0.08062844 -0.51744807 0.8375815 0.12492681 -0.76230824 0.5659661 0.30886257 0.70306903 -0.41276914 -0.09230304 0.54862964 0.19597721 0.6699267 0.46608123 -0.36647186 -0.22726436 -0.15292118 -0.36443806 0.36917838 0.9030288 0.49050322 -0.0223965 0.4118032 0.432939 0.30841717 0.16987136 0.16460799 -0.74230295 0.30978233 0.5851205 -0.2981161 -1.0440674 0.3769001 0.3793504 -0.2515969 -0.8178543 0.4212217 -0.09476174 0.17149176 -0.16403686 -0.1308517 0.1403758 -0.15211014 -0.11379305 0.42598745 0.25214732 -1.1825253 -0.7858008 0.41378137 -0.5667612 -0.13734038 -0.17819893 0.19658242 -0.39879543 -0.61877006 -1.2365988 -0.39526218 0.0107039055 0.003009079 -0.27281767 -0.22707382 0.35074216 0.25686926 -0.44593567 0.7525591 0.40364507 0.15887232 -0.7043557 -0.984534 0.3875078 -0.07253136 -0.5529205 -0.18833876 0.19875632 0.30008397 0.38064295 -0.9162444 0.5919843 -0.97430253 0.07548616 0.27376208 0.544536 -0.08472509 -0.05783799 -0.7428659 0.28589323 0.4104514 1.1137832 -0.3061651 0.2350278 0.2127281
as -0.011073714 -1.2855034 -0.03138314 0.10574933 0.894728 -0.31916997 -0.639546 -0.047548946 -0.03936556 -0.11748972 0.21569288 -0.03733113 0.34679687 0.0022166613 -0.30329084 -0.19757128 1.0974174 0.8275299 0.5683756 0.67552435 -0.41614014 -0.27300784 -0.9512842 0.09675702 -1.1098326 1.1020372 0.36752653 0.757826 0.4553129 -0.2955912 -0.22211362 -0.3989662 -0.085762456 -0.22313222 0.31896183 -1.1063097 -1.0210016 0.33380988 0.19513202 0.29908165 -0.2861148 -0.22452751 -0.61284477 -0.5386376 -1.1544006 0.30921087 0.9198085 0.41355222 0.1471954 0.7495825 -0.96896887 0.12726429 1.4766357 0.2842965 -0.63469774 0.07319416 -0.157666 0.8157985 -0.62428164 -0.7635726 0.73797375 -0.58213526 0.3439364 -1.2207574 0.17667638 0.118227534 0.19836721 0.4854647 -1.1286973 0.36074907 -0.87235296 -0.6215971 -0.45705515 -0.32318324 0.45151567 0.94790745 0.08297762 0.12540425 0.5629725 -0.20187017 -0.50462586 0.20725323 0.1410697 -0.43331578 -0.25725222 0.58899724 -0.02280627 0.62250054 0.17360622 0.32060346 0.49295542 1.3185362 0.24522117 -0.12878291 0.30719563 0.027531233 -0.6247877 0.012607855 -0.82357025 0.4729652 0.23514956 1.1087874 1.2005581 0.23644535 -0.5236017 -0.92050916 0.17923783 0.08173145 0.6346961 0.2654505 -0.8924303 -1.1304733 -0.1778043 -1.1545879 1.1110605 0.3403587 -0.4322625 0.5929761 0.691341 -0.58290994 -0.5485043 -0.27655405 -0.56650776 -0.05420844 -0.6218493 -1.1854347 -0.3410481 0.61713135
do -0.6469887 -1.1489048 0.26796284 -0.070878774 0.34317672 0.5787994 -0.036652766 -0.51343566 -0.0022627506 -0.085021265 -0.226896 -0.200846 0.055566512 0.8746575 -0.47352943 -0.24567255 0.8050794 0.1833533 0.39849538 0.31926298 -0.29260108 -0.1349493 -0.17870247 -0.4112533 0.29982442 0.42444572 0.54882914 0.27023014 -0.3742654 -0.16689302 -0.44833153 -0.20923682 0.28907672 0.10939153 -0.019781116 -0.56584126 -0.94306386 0.14295799 0.10858896 0.19622856 -0.25221807 -0.26229796 0.17549315 0.080341235 0.6371916 -0.12538666 -0.35358712 0.14930609 0.17003351 0.5198294 -0.7402031 0.122595 0.6423929 0.654617 -0.19963112 0.12692103 0.76235664 0.23060068 -0.3258696 -0.23479797 0.64074916 -0.4324691 0.04327679 -0.36282772 -0.4406004 0.3675017 -0.031094467 -0.18608351 -0.5005962 -0.2661385 0.35081995 0.0315247 0.08162441 0.03780704 -0.6817079 0.669888 0.10162645 -0.061397854 -0.055467077 -0.24159476 -0.13174598 0.08969092 0.38895857 -0.6511181 -0.55079013 0.4552985 -0.58930033 0.097695954 -0.053861797 -0.27574146 0.06993993 0.5103331 -0.23756585 0.37210512 0.728 -0.28712365 -0.4439545 0.21947722 0.026522623 0.31397107 -0.10782126 0.4894941 0.421245 0.24474734 -0.6437647 -0.66370046 0.023899462 -0.60995 -0.10810335 -0.17897317 -0.43506387 0.089965224 -0.07070798 -0.52224827 0.9400837 0.19283684 -0.4300493 -0.14900246 0.22194587 -0.31089434 0.03236756 -0.11312185 -0.15920907 -0.11609841 0.32901847 -0.4859845 -0.008806801 0.23788366
on 0.048417266 -0.27210724 0.1536161 0.11491295 0.20266922 -0.5321552 -0.17933452 -0.19587772 -0.10387912 -0.3958062 0.18206011 0.14351453 0.0038036825 0.11478633 -0.35541445 -0.49124476 0.97457886 -0.2410018 0.31848407 0.33286867 -0.15903172 -0.24850383 0.077559404 0.056631472 -0.16797806 0.82095546 0.14905596 0.06226665 -0.17035048 0.14438708 0.30595502 -0.0629082 0.08854558 -0.1259705 0.34038958 -0.6061471 -0.39258295 -0.40862915 -0.097505726 0.5307179 0.30741385 -0.0697004 -0.53609115 -0.519884 -0.7256684 0.025802033 0.30321625 -0.15153065 -0.065884165 0.50081754 -0.057047013 -0.35096505 0.48447865 0.0044466397 -0.26640847 0.61558527 -0.5380817 0.29779598 0.021679282 0.13532464 0.4836206 -0.38424227 0.32202938 -0.28335583 -0.3642803 -0.12838323 0.05097152 0.21644528 -0.021951985 -0.15083888 -0.6319656 -0.6925751 0.019861579 -0.5542567 0.4748091 0.40578866 -0.13852558 0.3667609 0.07078018 0.014189422 -0.12107126 0.190968 0.05423059 -0.09886614 0.25768563 0.022874715 -0.7451048 0.14148141 0.10461469 0.26745307 -0.12940337 0.9371414 0.8183961 -0.20695855 -0.5561915 0.17942789 -0.40603098 -0.43194878 -0.35540932 0.4242321 -0.1977611 0.8771454 0.46178213 0.51984185 -0.357138 -0.38412732 -0.17536555 -0.12725292 0.50418806 -0.2942857 -0.28686014 -0.32247445 -0.16120254 -0.49995476 0.041161228 0.21172442 0.13275431 0.54825705 0.5771737 -0.50997436 0.3786693 -0.55416554 -0.15933503 -0.06908992 0.06240051 -0.67764276 0.1358733 -0.22670196
have -0.36882898 -0.53989464 0.2901844 -0.22220558 -0.17294033 0.5421538 0.0545247 -0.13795565 -0.15552707 -0.024476485 -0.13937849 0.44262773 0.26773414 0.3112634 -0.43664148 -0.60229594 0.6824938 -0.42418718 0.38542992 0.17843302 0.040394217 -0.012635994 0.30126193 -0.55550444 -0.052939642 0.26385173 0.27310476 0.18238892 -0.22807766 0.025735427 0.22245586 -0.14328597 0.3340974 0.30668426 0.0111248 -0.28223714 -0.4187396 0.12674493 0.17088242 0.2393858 0.5556517 -0.17992029 -0.041676108 0.002280484 0.37453055 0.05074947 -0.34673488 0.21174915 0.47262982 0.13975087 -0.06829172 0.040588476 0.1728308 0.60905576 -0.3565787 0.08281569 0.21717472 0.3725015 -0.19001213 0.2369597 0.60449237 -0.08940003 0.0744654 -0.26730606 -0.30686706 -0.20227802 -0.39261836 -0.26690215 -0.2611913 0.01877163 -0.26048917 -0.25756425 0.1860686 -0.34824875 -0.2902875 -0.067493804 -0.13880108 0.13875706 -0.06654633 0.20419757 0.34290263 -0.0016205814 -0.056369588 -0.08063316 -0.119764395 0.07304583 -0.30390483 -0.04494398 0.10775671 0.24037716 0.11410982 0.26364192 0.10127124 0.087567426 0.28266925 -0.084988 -0.43009108 -0.34740224 -0.13383293 0.04803374 -0.11539119 0.87185156 0.45535335 0.34804904 -0.42537645 -0.24502699 -0.37711158 -0.5191326 -0.1888084 -0.23983511 0.033036552 0.24421954 0.014729195 -0.37178925 0.72480416 -0.030298587 -0.09030968 0.05180234 0.14174 -0.17043519 0.39479774 -0.368047 -0.033457316 0.028738119 0.48611417 -0.4033385 0.0071784905 -0.25937995
time -0.28226098 0.08258633 0.31139186 -0.43434927 -0.23890828 -0.20731279 0.01822901 -0.04060515 -0.40784192 -0.28745362 -0.15924604 0.81140405 -0.07418174 0.23193474 -0.6442691 -0.7490284 0.799704 -1.2121996 0.3469488 -0.026151568 0.08016298 -0.39561787 0.77966046 -0.22538362 -0.2507552 0.90415496 -0.18258062 0.22449343 -0.121957384 0.09192202 0.6216954 -0.11114675 0.66799015 0.44816384 0.09415921 -0.38749146 -0.10703668 -0.325578 0.30212224 0.7125843 0.880359 -0.22849691 -0.39541194 -0.5737633 -0.5333988 0.08434271 -0.10281046 0.08926979 0.31442723 0.44623834 0.112629786 -0.32946262 0.19132039 0.06377561 -0.4414171 0.75614697 -0.30578953 0.3874659 0.21247932 0.71253806 0.6619631 -0.20084956 0.29386592 -0.5535249 -0.55195767 -0.3866645 -0.44844183 -0.24940811 0.16465071 -0.0115060825 -0.79381025 -0.8686363 0.14447303 -0.7337234 0.48600486 0.02759274 -0.020902328 0.1318177 -0.065645315 0.3667474 0.33828893 0.32892188 -0.15178227 -0.3605622 -0.22677968 0.06733984 -0.9130566 0.0074413507 0.3124541 0.2781376 -0.19608489 0.86684436 0.5528623 -0.2557203 -0.3619835 0.40492657 -0.515935 -0.9572987 -0.8906334 0.007885406 -0.18780947 1.3449036 0.8273153 0.4167078 -0.4058175 -0.17976964 -0.3812256 -0.17963696 0.1577735 -0.7441352 0.2604911 -0.136178 0.036328137 -0.3709732 -0.07233992 -0.6474718 -0.09326369 1.2960144 0.42691225 -0.0068405815 0.56866664 -0.9960622 -0.28294858 -0.26691043 0.6924016 -0.46374103 0.21655306 -0.4709824
about -0.30812022 -0.8250315 -0.6206417 -0.084150866 0.26601925 1.4294639 -0.01998888 -0.9272493 -0.2855521 0.5040329 -0.09796073 -0.9250452 1.2353088 -0.15416881 0.8587799 -0.6877477 0.2942933 0.76112306 0.06775783 1.4376069 0.72091997 -0.100109816 -0.8541518 0.17261264 -0.08875405 -0.09260325 0.20871918 0.4866329 -0.29177228 0.11844043 0.0039118417 0.03713059 -0.098442644 -0.34645352 -0.2503068 0.31534782 -0.60842973 0.17530632 -0.20813857 0.324753 -0.7081208 -0.0025169216 0.040689856 0.4511746 0.9061627 -0.3213161 0.93770736 -0.49964818 -0.78717166 -0.07997378 0.10861378 1.3674401 -0.45934993 -0.41458687 0.05640612 -0.19534048 -0.41859967 -0.40089652 0.32819006 -0.041655574 -0.35904965 -0.45072368 -0.36674115 -0.34639034 -0.46389458 0.46521962 -0.040168025 0.7381487 0.13442858 -0.16732627 -0.63117635 0.052018974 0.13563226 0.14843485 -0.49410278 0.0019358246 0.40103143 0.024554484 -0.2196464 0.053216018 0.16931927 -0.4482818 0.59748363 0.8513273 0.61546785 -0.044383228 1.2974069 -0.1282824 -0.3481008 -0.0968816 0.3810971 0.8530562 0.7467349 0.5388802 -0.018582217 -0.85123575 0.21177526 0.46064124 0.9290765 0.106882535 -0.45729738 -0.08103247 1.0739024 0.45294738 -0.21198153 0.081093125 0.15760158 -0.16597793 -0.56776464 0.5016337 -1.0985882 0.40695047 0.25173178 0.12038547 1.4350848 1.3795823 0.13046569 -1.7906002 -1.8045e-05 -0.5371146 0.031729225 1.0590873 0.69757885 0.4815525 -0.3501788 0.017510006 -0.06829729 -0.19922706
work -0.17220338 -0.25479758 0.14416045 -0.2380683 0.1123396 -0.05351558 -0.057787012 -0.09402072 -0.20305896 -0.15298569 -0.14774558 0.13972744 0.08515782 0.3850135 -0.44569272 -0.4917014 0.82416594 -0.63788 0.39326292 0.1884087 0.05897225 -0.3380565 0.38772628 -0.2001738 -0.013868845 0.9894953 -0.032914653 0.23523876 -0.20521678 -0.27983245 -0.043450102 0.007382415 0.37296394 0.20784034 0.098568454 -0.66395783 -0.2902148 -0.1473685 0.12300375 0.44120705 0.41549277 -0.10943079 -0.03378746 -0.31836757 -0.47444588 0.057311725 0.011836082 -0.2337328 0.11309061 0.37057328 -0.4523954 -0.076649 0.41214487 0.03145333 -0.41867995 0.48332652 -0.14705503 0.22604422 -0.08795585 0.06288667 0.31954354 -0.2062773 0.23568745 -0.64408 -0.2716931 -0.09741163 -0.17768626 -0.18961902 0.019142782 0.13431486 -0.6002071 -0.31922415 0.038942065 -0.4118029 0.13488749 0.41605306 -0.019945133 -0.00019702884 0.15468569 0.18863285 -0.15660384 -0.020575704 -0.055297006 -0.49705783 -0.37821627 0.15061407 -0.54812497 0.3389275 0.4521508 0.0678512 0.15812944 1.0894301 0.44291365 -0.0057841395 -0.27248895 0.15639503 -0.51626945 -0.26423422 -0.48499072 -0.062824465 -0.15803102 1.0492426 0.7627554 0.28479746 -0.5037442 -0.20901407 0.05130472 -0.16102695 0.146443 -0.69688207 0.13328154 -0.29999617 -0.10205981 -0.21820429 0.18954381 -0.5482045 -0.21512294 0.76370525 0.28452155 0.08301449 0.087562285 -0.9334229 -0.5264151 -0.15689924 0.42363644 -0.35256073 0.034654327 -0.09128743
n't -0.6857334 -0.5985874 0.24606177 -0.5025219 0.20354863 0.051594105 -0.2632189 -0.62449735 0.041910037 0.22632326 -0.63838166 -0.5413167 -0.2219155 1.1510814 -1.140918 -0.34676445 0.07547635 0.27064833 0.89329326 -0.041962977 -0.5714497 0.10824002 0.19298044 0.062853426 -0.044089504 0.042607456 0.60030997 0.7759564 -0.91757506 0.1355675 -0.22225362 0.2515275 0.10350345 0.49565512 -1.1762586 0.4764614 -0.5573013 0.3217378 -0.16388553 -0.34275377 -0.9093873 -0.6435471 0.08065385 0.067368984 1.5509983 -0.5461446 -0.043049254 0.39268732 0.34179223 0.18906176 -0.73328215 -0.13186252 0.45784593 -0.0531342 0.25993884 0.2128987 0.81444407 -0.30194578 -0.13332452 0.44299278 0.09067396 -0.4264901 -0.22422406 -0.22045071 -0.11420742 0.010708397 -0.18075934 0.39321944 -0.48433718 -0.6078894 0.88519037 0.5178954 0.30895638 0.943358 -0.8858716 -0.32947952 0.41751418 0.1555615 0.14251472 -0.65922457 0.07031024 0.16008168 -0.008730642 -0.90925664 -1.0205426 0.75629944 -0.76799685 -0.12468461 0.28194788 -0.030508006 -0.40886652 -0.30883607 -0.51385 0.05098182 0.8968687 -0.5693461 -0.37485862 0.64048594 -0.49433714 0.34272832 -0.21086143 -0.1348489 0.84562314 0.73344594 -0.67075384 -0.38226727 -0.32942396 -0.5849679 -0.28403255 -0.18813619 -0.27373406 0.12077335 0.19183016 -0.4571857 1.0457963 -0.37074575 0.037011895 -0.57885414 0.07456259 -0.035743907 -0.11810259 0.17642337 0.039116595 1.0697664 1.1787823 -1.1254419 0.07061503 0.060900353
project 0.20910692 -0.86514497 -0.13203363 -0.15552631 0.7668294 -0.4658899 0.078949094 0.14104037 -0.30651033 -0.4518855 0.12954153 0.065554306 -0.22865288 0.512606 -0.67975456 -0.38088757 1.243732 -0.54664415 0.22235243 0.54337853 -0.35854736 -0.7583412 0.07510249 -0.09563098 -0.5201561 1.9538296 0.16891094 0.3417456 0.1892788 -0.23401622 -0.48879796 -0.053566985 0.9086403 0.36734295 0.53085405 -1.5435835 -0.5106417 -0.13559285 0.08106327 0.85671574 0.54933566 -0.049452744 -0.26249218 -0.89304245 -1.464933 0.28829485 0.21372382 -0.3645733 0.06752911 0.6931129 -0.84074944 -0.3634936 1.2427366 -0.20893551 -0.3641323 1.0607281 -0.53401464 0.7312621 -0.186345 -0.33492738 0.6603724 -0.76826465 0.51885056 -1.1733886 -0.56841636 0.028740125 0.05568014 0.06836713 -0.093450285 0.25923398 -0.9687998 -0.729334 -0.049871065 -0.77681005 0.59027016 1.2856078 0.017015137 0.10635889 0.2992418 0.052770004 -0.57391465 0.003692802 0.059696525 -0.5265064 -0.42042038 0.13569018 -1.1374861 0.56145597 0.4971369 0.23949201 0.25977185 2.0964537 0.6546244 -0.06267772 -0.3802823 0.38972473 -0.7929825 -0.27297807 -0.74575007 0.51526433 -0.3201653 1.6880131 1.3112725 0.4997397 -1.0239602 -0.98467714 0.12152652 0.15337533 0.4501097 -1.0902424 -0.28901753 -1.1110739 -0.08420896 -0.8362245 0.3823065 -0.7604438 -0.49016148 1.3442147 0.8411576 -0.041564845 0.06178517 -1.5908617 -0.8598564 -0.45130864 0.41957593 -0.53797626 0.40186054 0.17961937
try -0.11061786 -0.5453218 -0.057116434 0.18701074 0.9205104 0.04158205 -0.82177556 -0.4215898 0.29608876 0.41821462 -0.104665205 0.21592814 -0.08282795 0.4754262 0.2689833 -0.41780618 0.54413337 -0.135805 0.7982022 -0.19648017 -0.05230656 -1.0978385 -0.1786619 0.04766642 -0.07602661 0.020938974 0.11036591 -0.1791512 0.75569224 -0.01843394 0.33504593 -0.88421905 0.3712603 0.2371751 -0.5335406 -0.8723007 -1.1794541 -0.37773558 -0.059661843 0.9486004 0.12984186 -0.7400138 0.04077256 0.5362923 -0.15083484 0.12345799 0.7443624 0.57729095 -0.1571064 1.044671 0.55442 0.07764618 -0.0023580077 -0.19199897 -0.64416033 0.48261553 0.13362403 0.17436014 0.29663542 0.35267305 0.12521107 0.12493211 -0.17205898 -0.25669408 -0.93300414 0.45339367 0.5221394 -0.78474796 -0.43725675 0.060495727 -0.38281026 -0.7635563 -1.153104 0.017189583 0.7548851 0.1638164 0.3459363 -0.3283714 -0.053241 -0.15153366 -0.29847944 0.83137524 0.1094284 -0.6885324 0.016565327 0.5978569 -0.03345997 -0.095381 -0.5837963 -0.2178262 -0.70312583 0.031732615 -0.4833783 -0.3110383 -0.29179895 0.07571417 -0.38707626 -0.4126104 0.018593032 0.22655271 0.06987156 0.9653441 1.0863733 0.038337145 -0.42944315 -0.6761981 0.23034278 -0.11805178 -0.27591437 0.14497392 -0.35105208 -0.0231051 0.29914236 -0.71778715 0.5308632 -0.28550053 -0.0028622188 0.8392417 0.74201936 -0.7723046 -0.32990882 -0.26381716 0.5244592 -0.0283017 0.06782847 -0.21228392 0.2721654 0.12337903
could -0.17947374 -0.022283725 0.24325466 -0.17019942 0.39162484 0.08418124 -0.3111668 -0.44871345 0.13765386 0.14318159 0.066730246 0.055071708 0.31389913 -0.19213018 -0.09214523 0.033716656 0.16586338 0.04709762 0.403164 -0.10134076 -0.02843919 0.40927622 -0.30717775 0.026000947 0.07965016 -0.23258771 0.08189292 0.5527406 -0.39782476 -0.091343775 0.4526902 -0.31394333 -0.05210984 0.15634048 -0.31119204 0.14241174 -0.30799946 0.0777881 -0.00065303914 0.040069554 -0.19595313 -0.23725139 -0.66229594 -0.1145057 0.1921366 -0.037985392 0.26583233 0.19831358 -0.014809475 0.5086208 -0.3680573 -0.13249856 0.1956904 0.25715974 -0.30320716 -0.09897744 -0.17084342 0.16089742 -0.19251825 -0.04145667 -0.26512152 -0.16157266 -0.011940453 -0.05820924 -0.19356754 -0.00566939 -0.15429673 0.20682967 -0.1159138 -0.039019886 -0.10593088 -0.22435866 0.25432947 -0.04419142 -0.10001714 -0.3438843 0.0016180507 0.2619822 0.20486018 -0.16950215 0.4282836 0.09234822 -0.15838124 -0.00517251 0.15124105 0.13930339 0.019202333 -0.01151993 -0.0050069606 0.09720158 -0.020939952 0.12848118 0.39816335 0.4495184 0.27860862 0.13319677 -0.16913268 -0.03506741 -0.59735835 0.08131124 0.21256073 0.60412306 0.7647618 0.46067917 -0.19075221 -0.22864698 -0.45998198 -0.38097513 0.0011647533 0.48231986 -0.28667256 -0.0568232 -0.09973942 -0.40581363 0.86759084 0.1899209 0.11561399 -0.2156903 0.37860367 -0.61387044 0.034748286 0.15010104 0.015091443 0.3568256 0.38589978 -0.92005634 -0.07666758 -0.14099996
vacation -0.8157071 0.056811437 0.084580705 -0.9433617 -0.5003318 0.20471643 -0.26657107 -0.21247032 -0.5861099 0.06208322 -0.72063106 1.3932185 0.026294617 0.35087302 -0.034652673 -0.6124673 0.3177778 -1.1132822 0.4926763 -0.0042289454 0.670559 -0.3454533 0.16178077 0.29255983 -0.95220906 0.11560722 -0.35119146 0.7993953 0.048323587 0.80228245 1.797215 -0.26816267 1.0261387 1.0669466 -0.27320644 0.48130682 -0.19079028 -0.04329529 0.49006936 0.6313352 0.536941 -0.5867388 -0.75231665 -0.6395513 0.52189237 0.029303491 -0.024699526 1.474924 0.66933876 0.54827577 1.0112698 0.21299918 -0.17084953 -0.023560315 -0.6945025 0.8327228 -0.13848351 0.24867427 0.49756938 1.9921883 1.1667829 -0.67435527 -0.06522895 -0.475981 -0.8907554 -0.29976955 -0.7222906 0.21236753 -0.049425695 -0.5391291 -0.28629577 -1.4248185 0.34861705 -0.09111709 0.9372236 -0.77282155 0.41448495 -0.108499296 -0.3032792 0.59735626 0.98896676 1.0256246 0.2927015 0.037411973 0.037846167 0.7122483 -0.80795693 -0.42622253 -0.4598678 0.044111993 -0.7680081 0.0700656 -0.12787986 -0.5836179 0.78227025 0.30620226 -0.1663938 -1.5690918 -1.2320403 0.34087622 0.31217554 0.7123997 0.8876518 0.09831024 -0.028650822 -0.2852893 -0.9551067 0.046755165 0.4027697 -0.5045671 -0.635784 0.47311616 0.49978936 -0.7031362 0.4266289 -0.21235965 -0.4362916 1.3537629 0.17708619 -0.5205356 0.78725964 0.06781522 0.6379152 -0.13647783 0.88037354 -0.97706914 0.60702866 -0.49960142
get -0.11870224 -1.0548136 0.16399848 0.044285975 0.49194437 0.09892778 -0.23117366 -0.1829096 0.009182752 0.023159664 0.17310658 0.16527073 0.110884055 0.27328303 -0.5566413 -0.7536917 1.0700438 0.047882423 0.56353706 0.3055058 -0.336229 -0.45614552 -0.07224735 -0.4076609 -0.53473824 0.86141396 0.30101395 0.26247835 0.29284868 -0.17223294 -0.14224301 -0.3611481 0.29590818 0.14337698 0.30740726 -0.9211095 -1.0183463 0.044234533 0.21795104 0.57695895 0.41492763 -0.43904856 -0.30755648 0.11592947 -0.67296815 0.3947496 0.38849142 0.35581252 0.19795898 0.4560529 -0.20672475 -0.035380542 0.92799556 0.53448665 -0.48552242 -0.05282821 -0.15331987 0.92410326 -0.3156919 -0.48013127 0.6835668 -0.23253356 0.16389836 -0.83059895 -0.32057062 -0.010199479 0.037497804 -0.34260434 -0.58203405 0.15801176 -0.7069602 -0.5544485 -0.5118213 -0.41747713 0.22696741 0.72667927 0.054925308 0.1196659 0.07995369 0.013938063 -0.38317925 0.13675486 0.09829483 -0.2819104 -0.2055486 0.13571058 -0.21584044 0.27121753 0.14554767 0.092178196 0.43635133 0.8492761 0.06282043 -0.12863715 0.033327337 -0.07508849 -0.5841472 -0.38113582 -0.2767145 0.11852834 0.031642556 1.2544118 1.0071162 0.36980504 -0.6998392 -0.86852616 -0.022520881 0.0061363517 0.14665113 -0.024617981 -0.08403127 -0.5976368 0.04059664 -0.7574821 0.66171485 -0.23792295 -0.20524284 0.46870944 0.52314574 -0.14560996 0.01631341 -0.93514293 -0.16443379 -0.17491159 -0.19034788 -0.39741746 -0.067400195 0.18524343
boss 0.012167122 0.13267839 -0.016779054 0.1298452 0.6140827 0.45237315 -0.62979853 -0.24256872 0.7047043 0.404618 -0.43897656 -0.57058436 0.5074625 1.0475674 0.18289827 -0.1199642 0.47336197 -1.4490026 0.39293063 -0.14055797 0.9712236 -0.6610191 0.7155255 -0.18959807 1.0104935 -0.0007303216 -0.7827338 0.7409174 -0.91089606 -0.31993312 0.64134383 -0.7122568 0.4045781 0.6703913 -0.85667807 -0.38759625 -0.8521224 -0.2948996 -0.45421964 0.74875563 0.16889209 -0.35757 0.6129937 -0.31708786 0.33568949 -0.38619286 -0.2380412 -0.8255236 -0.24946158 1.1820419 -0.2434543 0.3045339 -0.7181718 -0.7864105 -1.0939804 0.31398618 0.1905484 -0.2257041 0.287001 0.34579623 -1.1085081 -0.018077679 0.2981637 0.23077346 -0.97293663 -0.08812962 -0.19109966 -0.49417013 0.8135487 -0.032944802 0.27444026 -0.5922703 -0.014515204 -0.12745161 0.1722417 -0.034347016 0.07185219 -0.46953082 0.5265363 0.8030955 -0.4155314 0.47267538 0.3353408 -0.6560235 -0.4612248 0.74041873 -0.41397724 0.23045169 0.034482617 -0.5197851 -0.08997757 0.6959508 0.39871827 0.32963893 -0.14212845 0.5719882 -0.54137 -0.10836962 -0.29592094 -0.60983926 -0.3113863 1.0898484 0.3951824 -0.6183822 0.18750632 0.017343141 0.28888667 -0.6226433 0.10873032 -0.9838666 0.25413114 0.17854154 -0.54312015 -0.0979517 -0.18483955 -1.3813568 0.123048104 0.98964006 0.33590066 0.20052764 0.27394158 -1.1949909 -0.75767326 0.081500135 1.4068276 0.01111829 0.6177764 -0.039169945
colleague -0.468938 -0.5257252 -0.16992795 -0.22844963 0.75187874 0.6497119 -0.6086958 -0.34076804 0.8773924 0.630317 -0.70927036 -0.22827543 -0.20065047 1.0260599 0.2462366 -0.028610568 0.06339786 -0.5633297 0.6722836 -0.15876007 0.2937931 -0.4862532 0.27911612 0.10076022 -0.31325933 -0.59269524 -0.30114818 0.84495497 0.03944068 0.67110646 1.0062324 -0.9389743 0.81583107 1.3450762 -1.4559871 0.24336201 -1.2831494 0.05566047 -0.32756385 0.8648013 -0.12206639 -1.0241216 -0.028906679 0.06589304 0.79042405 -0.37880158 0.37138122 0.7707257 0.020930693 1.0850775 1.0891639 0.065710194 -0.6527026 -0.8063212 -0.8171473 0.3690793 0.21889788 0.3552677 0.37560794 1.0604038 -0.0762728 -0.27822584 -0.07408167 0.21363352 -1.0264881 0.13835576 0.20585828 0.071044974 -0.07832958 -0.17865194 0.5318586 -0.88371384 -0.599422 0.74332774 0.520211 -0.45343077 0.5576545 -0.3073184 0.24776463 0.41000557 0.046290163 0.7350583 0.519097 -0.4963471 -0.40449166 0.73286486 -0.19503649 -0.29535955 -0.5654213 -0.5239319 -0.2664495 -0.5594592 -1.0016965 -0.590036 0.5321448 0.13767655 -0.078100055 -0.68310636 -0.27133873 -0.06007588 0.099991806 0.40580776 0.59740126 -0.4236712 -0.039519526 -0.80961615 0.052982826 0.44067356 0.025525179 -0.312202 -0.018514248 0.27783406 0.46160316 -0.7020493 0.25220257 -1.2255864 -0.13341786 0.7810846 0.2601739 0.065866895 0.21152201 -0.7133892 0.26907578 0.48104885 1.0934769 -0.27618262 0.5965826 0.13603258
make -0.05313472 -0.76841253 0.072829075 -0.03600436 0.20600149 0.3495336 -0.40833804 -0.0031713897 0.109295726 0.32551205 0.17005417 -0.316723 -0.12372853 0.68376726 -0.5219482 -0.5186074 0.77904624 0.00764376 0.16651666 0.06249577 -0.15549827 -0.4108279 0.1824023 -0.6293244 -0.07055494 0.2620914 0.4099858 -0.15398423 0.16771075 0.412401 -0.01755003 -0.33583504 0.111137085 0.07300442 -0.00096499745 -0.46270004 -0.973477 -0.15842049 -0.043603536 0.58515376 0.14784215 -0.43941915 -0.09132747 0.16293418 -0.40399438 0.050177693 0.41849396 -0.32987848 -0.34551686 0.37091622 0.09776649 0.050420687 -0.039355583 -0.010661438 -0.15253846 -0.16720627 0.01776613 0.558394 -0.1000909 -0.11658507 0.41995728 -0.19717038 -0.057888027 0.09297563 -0.61959183 0.06764897 -0.06802516 -0.020376174 -0.5710672 0.17186348 -0.5457292 -0.6876571 -0.5531281 -0.40969443 0.3707311 0.42160228 -0.48357487 0.25674263 -0.1075891 0.30949104 -0.016213305 0.4202591 0.25420526 -0.21081527 -0.2658532 0.10050341 -0.3297647 -0.19849809 0.16278455 0.19081496 0.08280177 0.41349545 -0.26793888 0.020518648 -0.3775552 0.12876645 -0.5558968 -0.12753327 0.15310888 -0.010124839 -0.53499496 0.83712584 0.575423 -0.028003879 -0.62121195 -0.40886542 0.15314844 -0.276029 -0.32252693 -0.03115448 -0.055671882 0.24627036 -0.45951042 -0.6696301 0.045459922 -0.20720774 -0.014561483 0.4147167 0.2862289 0.11539345 0.33098367 -0.5063257 0.14934197 -0.03137716 -0.053602498 -0.1858545 -0.23304139 0.13039577
find -0.32939306 -0.8138598 -0.9728542 -0.017564533 0.61443335 0.7717758 -0.34988394 -0.948825 -0.68627816 0.2461206 -0.39598483 -0.7413831 0.15235434 0.61287093 1.0382735 -0.009353071 0.28550717 1.0932435 -0.24234107 1.2810789 1.1569661 -0.1500671 -1.1479927 -0.19663061 -0.018904664 0.74155533 0.279274 -0.33424953 0.16290566 0.1007936 -0.17402335 0.24020806 0.23390591 -0.39674932 0.3878914 -0.9731355 0.11612125 0.061251592 -0.27391145 0.6587328 -0.5366629 0.20422047 0.84054476 -0.23973797 0.64235705 -0.5559556 0.5017637 -0.41804296 -0.6244107 -0.11636292 -0.27057335 1.1401999 -0.021756168 -0.6464705 0.4226885 0.6113171 -0.027784402 -0.61374456 0.48010752 0.41802043 0.13160501 -0.47265363 -0.18059115 -0.57121956 -0.67794544 0.7764705 0.12727664 0.14987072 -0.12240921 0.081142426 -0.3301681 0.62821895 0.52578366 0.36028934 -0.36673552 1.0278881 -0.44925877 -0.82409453 -0.23153186 -0.48690927 -0.37583464 -0.013402565 0.5741108 -0.5638966 0.5721456 0.8200073 -0.1132067 0.122834325 -0.38983917 -0.0016129984 -0.90477985 1.2036643 0.108580396 1.0483944 0.08755287 0.023983097 0.0028077327 0.78440225 0.45604244 0.817967 -0.4800964 -0.05285744 1.070245 0.26332954 -0.679041 -0.33640873 0.26523212 -0.1968989 0.084387764 -0.49892032 -1.8282466 0.31502107 0.011132886 -0.11660316 1.2680923 1.3997476 -0.39236444 -1.3156322 0.0387081 -1.4968945 -0.3288142 1.4868505 0.5790074 -0.07725714 0.001981999 0.025951954 0.21888289 0.3637607
was -0.13468342 -0.04470185 0.28385964 0.10472461 0.37745428 0.025613682 -0.37486404 -0.42866632 0.36636704 0.29339498 -0.27142042 0.10591933 0.14542319 0.2669182 -0.0828626 0.06956106 0.15867408 -0.1631051 0.26014665 0.18364644 0.46637368 0.5192943 -0.17208351 -0.36795747 0.15209988 -0.17383154 -0.27642995 0.3837335 -1.0261048 0.27920467 0.89080846 -0.24582043 -0.083684675 0.2340618 -0.15979594 0.0038070166 -0.3860239 0.4042076 -0.10736511 0.23346263 0.044189025 -0.18199632 -0.16348153 -0.37997073 0.7418843 -0.3930893 -0.6451072 0.2872017 0.15118873 0.32783967 -0.44447988 0.13123955 -0.014212523 0.46301702 -0.2749461 -0.13938944 0.29876533 0.23422001 0.103958316 0.4390683 -0.23385747 0.09455836 0.38571927 0.29451776 -0.6081735 0.0069791484 -0.35712814 0.033208475 -0.15664186 -0.026393939 0.53189677 -0.32097033 0.66187245 -0.0038511937 0.028493349 0.06774761 -0.2901861 -0.24116011 -0.11366831 -0.12516904 0.58924013 0.5840952 0.19821432 -0.28898573 0.19018246 0.6630855 -0.6984993 -0.22604874 -0.26208043 0.32093555 -0.5004377 -0.20488162 0.3595022 0.9872794 0.60413104 0.49583197 -0.12939607 -0.34053737 -0.54537493 0.18116827 0.16556855 0.6859684 0.26972738 0.1769247 -0.09327521 -0.226727 -0.4784069 -0.6761752 0.11905973 0.2711613 -0.43076086 0.11604532 -0.32760748 -0.35830882 0.66646266 0.100781135 0.34815624 -0.38647845 0.40484554 -0.96408206 0.40942088 0.5269878 0.16853471 0.270266 1.0778055 -0.9747067 0.24753153 -0.20303425
so -0.4462689 -0.49386802 0.21093103 -0.34183118 -0.09932404 0.19030558 -0.02435501 -0.24382992 -0.29057676 -0.17611307 -0.2005152 -0.0074354247 0.27054518 0.29407176 -0.61148244 -0.46444285 0.55472964 -0.02421163 0.41515502 0.33333355 0.01446328 0.11394402 0.10478181 -0.16939631 -0.2071797 0.48575345 0.2834753 0.45208445 -0.42708728 -0.08456431 0.07010753 0.14415109 0.019675024 0.023777839 -0.010303726 -0.056203052 -0.3989193 0.159972 0.13205688 0.0068859593 -0.025110811 -0.16582853 -0.23996134 -0.2940121 0.1596521 -0.044405926 -0.0010667975 0.1428217 0.26508996 0.15585957 -0.48163936 0.0053352355 0.5802974 0.325269 -0.19286384 0.048383486 0.03075299 0.21867812 -0.2949252 -0.06755104 0.49971008 -0.40005085 0.11911443 -0.530292 -0.022537373 -0.14314279 -0.2724604 0.30226913 -0.3819605 -0.17257476 -0.16342846 -0.2032183 0.39549705 -0.085702285 -0.25956616 0.1400138 0.03908633 0.18420145 0.18933953 0.020673804 0.05334387 -0.00871689 0.031566277 -0.2505469 -0.32753423 0.2658517 -0.4170677 0.19215968 0.32109615 0.123414025 0.2048183 0.64481336 0.22516711 0.17433089 0.3176716 -0.12847523 -0.3384454 -0.109341644 -0.47572756 0.06292213 -0.034953944 0.42187396 0.53273195 0.32655314 -0.26256084 -0.10481643 -0.24567455 -0.3167597 0.1712767 -0.14724094 -0.24414821 -0.081770025 -0.11563345 -0.32093042 0.5886537 0.10199278 -0.19166252 0.056746207 -0.03932256 -0.036981564 0.122292705 -0.17579913 -0.22652145 0.060965654 0.18199852 -0.5904428 -0.11215614 0.067815654
at -0.03450922 -0.2779196 0.13903984 -0.042013295 -0.09372278 0.1559299 0.09794409 0.0066357474 0.051292643 -0.21669404 -0.02157729 -0.2770954 0.08481846 0.14791486 -0.3474604 -0.5163085 0.6831587 -0.26703244 0.1538499 0.49881768 -0.060397927 0.16547395 0.5431371 -0.27688783 -0.13397332 0.5249789 0.22438753 0.064926155 -0.32594797 0.3299959 0.07841219 0.039542932 0.09999186 0.029553274 -0.12233322 -0.17840655 -0.3855595 -0.17955668 -0.25429857 0.38639972 0.38381845 -0.03135176 -0.2104257 -0.38199297 -0.21772847 -0.32941878 -0.020476758 -0.39474538 -0.07598416 0.18337826 0.13276649 -0.3366591 -0.0025768888 -0.17706212 -0.13931553 0.5058601 -0.50578684 0.31596372 -0.06644559 0.13230853 0.22366346 -0.26097748 0.28980336 0.008199497 -0.13135293 -0.33256483 -0.033073194 0.5101648 -0.039833475 0.07348832 -0.49582505 -0.40594405 0.3059184 -0.2582735 -0.0198156 -0.0110953655 -0.3105379 0.5089767 0.13200659 0.27175513 0.16980486 -0.21130428 -0.024901522 0.025519991 0.04386392 -0.34746474 -0.35161564 0.050944783 0.4407567 0.54783756 0.23389113 0.6704584 0.54179674 -0.12365002 -0.5748936 0.08433473 -0.24088776 -0.25191396 0.0050105173 0.023146773 -0.43412426 0.59687084 0.104042664 0.46987623 -0.17990148 -0.10031034 -0.09457803 -0.018140668 0.13574173 -0.36038697 0.11060244 0.08178423 -0.009815901 -0.28090277 0.022356873 -0.08491999 0.16102009 0.00011192044 0.19094342 0.17525175 0.5214351 -0.662671 -0.34208462 0.271217 0.45668 -0.25580427 0.06215706 -0.2929499
also -0.24530762 -0.119731694 -0.22263195 -0.09793635 0.086279675 0.41636083 -0.2265071 -0.24582289 -0.0032181833 0.13509539 -0.19516207 -0.39599258 0.3340866 0.3260095 0.107460715 -0.39931157 0.42367205 -0.15620942 0.25738472 0.29613104 0.3002685 -0.19992653 0.1477424 -0.13721444 0.27109787 0.045669824 0.243262 0.106177196 -0.16321152 -0.05822756 0.17225312 -0.09408871 0.08961836 0.019044954 -0.3928698 -0.10974097 -0.27980644 -0.135463 -0.20743595 0.26338187 -0.14433965 -0.11729504 0.18671605 0.06659166 0.23151681 -0.20299217 0.47197992 -0.40648758 -0.35935727 0.30252245 0.027736187 0.2520757 -0.40370676 -0.41288456 -0.20348698 0.28772894 -0.10996092 -0.40344796 0.21235684 0.21873151 -0.13615996 -0.18019482 -0.16559461 -0.05930231 -0.21595606 0.03268485 -0.09957539 0.17295778 0.08131293 0.03657039 -0.4278522 0.010314294 0.016689114 -0.03830103 -0.12487161 -0.18635295 -0.106714465 0.06253486 0.15071546 0.23400031 -0.009313205 -0.18251488 0.005168813 -0.08425882 -0.036504608 -0.042538874 0.20470792 0.086742334 0.09492869 0.027230144 0.014631297 0.514269 0.1455158 0.055478673 -0.4433187 -0.102383904 -0.17774032 0.264468 0.18938664 -0.05693997 -0.42398226 0.33029038 0.5920011 0.23226416 -0.15542662 0.1497491 0.14472614 -0.31356546 -0.14787619 -0.3074543 -0.2815809 0.3309728 -0.096631825 -0.09444959 0.3994181 0.1192608 0.0021744554 -0.07578162 0.12697601 -0.027432216 0.020534467 -0.098327 -0.04233721 0.22839856 0.21825829 -0.08270321 -0.09550688 -0.13941798
or -0.3246382 0.18213607 0.2737669 -0.1087539 -0.16661038 0.17891216 -0.27726832 -0.1355352 0.15779048 0.22208495 -0.37943596 0.1272516 0.23841573 0.22542639 -0.1287018 -0.44544643 0.20893063 -0.4782135 0.43417025 0.14938371 0.43217593 0.2200572 0.39779875 -0.1051133 -0.05597842 -0.16609956 -0.13713336 0.36966485 -0.83046436 0.33075577 0.8411921 -0.15929487 -0.049362488 0.18006499 -0.56247514 0.49263737 -0.4180396 -0.08415595 -0.1753659 0.17640047 0.29414704 -0.10826855 -0.110045224 -0.1877472 0.74395597 -0.6424119 -0.28917128 0.11226668 0.0723222 0.23276527 0.16872065 0.19595727 -0.3901109 -0.090348355 -0.39886534 0.013580181 -0.08876113 -0.030830575 0.16200534 0.71008456 -0.37893176 0.16050805 0.23280059 0.30267787 -0.29943815 -0.20890777 -0.3621775 0.38588837 -0.12813033 0.18440951 -0.11999946 -0.4936324 0.4382134 0.09510457 0.16543719 -0.59336644 -0.27016228 0.15553392 -0.08590889 0.2293746 0.7185548 0.4323726 0.13270877 -0.11464828 -0.040880103 0.28027502 -0.22418904 -0.28111264 0.03301066 0.3658302 -0.23378348 -0.1705907 0.43320388 0.33575886 -0.08694301 0.21470793 0.004055036 -0.5899971 -0.3096647 0.0033986513 0.0022830355 0.3235162 0.04247705 0.026462775 0.10346486 0.24275628 -0.35505506 -0.48124865 -0.123817675 0.21888222 0.10974679 0.4288475 -0.034060907 -0.13125771 0.15189636 -0.15490045 0.40338257 -0.013252699 0.14316028 -0.1755059 0.57654756 0.109330274 0.19276457 0.37996262 0.8418706 -0.73304415 0.119860575 -0.39523858
feedback 0.401544 0.018538553 -0.63919336 0.44791374 1.1548182 0.72813815 -0.6947784 -0.98411 0.31231865 1.0035014 -0.36356172 -0.9649975 0.6507979 0.26813293 1.1880527 0.06172705 -0.71267337 -0.15499078 -0.12575758 0.7170405 1.3543041 -0.6401391 -0.97151977 0.32935712 0.509647 -0.07148351 -0.72174513 0.36477226 -0.6463423 -0.06613764 0.21802126 -0.09806442 -0.24073018 -0.23472974 -0.74501824 -0.23857306 -0.72458917 0.1349027 -0.29046842 0.526174 -0.3516991 -0.021810593 0.8743986 0.103976384 1.0004114 -1.0624853 -0.46151504 -0.40201917 -0.9781021 0.60013753 -0.69853306 1.454452 -0.3391157 -0.74333185 -0.29689062 -0.005809584 0.08163985 -0.36313215 0.64575046 0.34501943 -1.850622 0.17127788 0.2545649 0.08551449 -1.4391894 0.8980189 0.19914035 -0.23704427 0.5661916 0.31898338 0.5910779 -0.31572646 0.252411 0.69758016 0.3422363 0.3863137 0.27902752 -1.042765 -0.8425711 -0.2988765 0.07929684 1.3181481 0.7706051 -0.5445825 0.42491373 1.4028586 0.051892098 -0.7611614 -0.9359994 0.018881459 -0.9471239 0.52287567 0.75916713 1.7450733 0.22599076 0.37914115 0.3017299 0.19902267 0.3353356 0.05815932 0.00292269 0.2538371 0.9576336 -0.42917663 0.12895949 -0.096939355 0.30237272 -0.533373 -0.3868762 0.39061245 -0.7253959 0.10969162 -0.17896901 0.2648224 0.57999164 -0.04285969 0.4293675 -0.7455539 0.57354355 -0.9250059 0.031809725 1.1503373 0.76718897 0.49036783 1.184257 -0.1323969 1.0232639 -0.05260084
they -0.9210485 -0.35765728 0.4762836 -0.3619398 -0.024497025 0.56829375 -0.48846903 -0.60981745 0.05124734 0.66713864 -0.7899468 -0.11027842 0.41705087 0.6319167 -0.36456582 -0.71159285 -0.057559643 -0.20599583 0.77614844 0.040688097 0.45202205 -0.061853774 0.44837674 -0.047872245 0.022001358 -0.5878291 -0.035642385 0.7065431 -0.8597457 0.06936617 0.81732064 -0.40355423 -0.28424567 0.39522344 -1.2703475 0.8642695 -1.3112737 0.23739132 -0.035585463 -0.08444065 -0.4304734 -0.64837515 -0.24380958 0.26134965 1.7432481 -0.63080347 -0.3290718 0.79968226 0.21576728 0.6718193 0.066111326 0.48069522 -0.052919257 0.13630986 -0.46208268 -0.48923698 0.7023203 0.023777317 0.019853598 0.6747153 -0.3275954 -0.06611754 -0.14839415 -0.026304731 -0.61133885 0.016765919 -0.27410817 0.15757014 -0.4131102 -0.31273454 0.56225556 -0.7956697 0.14245114 0.645982 -0.2055636 -0.7193253 0.4714473 -0.10970714 -0.16004029 0.03287984 0.56401783 1.0398401 0.5232853 -0.480917 -0.69529104 0.9747555 -0.31260958 -0.52364963 -0.1851997 -0.27805826 -0.2998413 -0.58092606 -0.24815848 0.36055204 0.9723627 -0.12711252 -0.029658426 -0.5508296 -0.55812985 -0.13652128 0.29952788 -0.061686385 0.39332008 -0.3521006 0.33230683 0.08664176 -0.3978235 -0.7120817 -0.35293978 0.55361193 0.070406094 0.46914735 0.0068359897 -0.28383553 0.3884741 -0.43231285 0.052183066 0.10724881 -0.16804582 0.039186176 0.21392623 0.43235648 0.5401694 0.46704987 0.82350016 -0.84135973 0.27936336 0.073108025
change -1.1262001 -0.47738555 -0.021010272 -0.8467361 -0.52949065 0.6352673 -0.61790264 -0.26889637 -0.490699 0.2677645 -0.9472568 1.4315358 0.121800914 0.9219592 -0.0023318874 -0.5536703 0.34983066 -0.59636676 0.6330575 -0.19166511 0.7419069 -0.6187659 -0.15315345 0.0331005 -0.76684207 -0.4745783 0.18736914 0.8188543 0.2583215 0.54477775 1.7165468 -0.49856552 0.94885164 1.1477731 -0.62909424 0.28804412 -0.44580442 0.3026504 0.5739769 0.38208082 0.1626992 -0.8489341 -0.34108865 -0.21127774 1.3930552 0.15430136 0.12075348 1.886296 0.94069797 0.67396915 0.8854653 0.63957036 -0.21002616 0.28463244 -0.8511463 0.40487638 0.8528134 -0.06553578 0.5133329 1.9891417 1.5785197 -0.553086 -0.34104726 -0.433892 -0.8432007 -0.085571334 -0.8145732 -0.11424443 -0.643406 -0.5357797 0.08644331 -0.85292584 0.14563642 0.102441914 0.3622386 -0.73605114 0.4048299 -0.52895004 -0.14093384 0.58766603 0.96587723 1.0066007 0.36469615 -0.43094963 -0.2028207 1.0219029 -0.52204037 -0.3444009 -0.7805797 -0.2060395 -0.88737595 -0.41832218 -0.9457134 -0.694936 1.422059 -0.0044123214 -0.3901535 -1.1704314 -1.0128257 0.492775 0.26154184 0.46423042 1.1242502 -0.17891352 -0.127168 -0.35157534 -0.7526896 -0.5673399 0.32727045 -0.49939066 -1.1512762 0.9155345 0.3977468 -1.06683 1.2224833 0.1860311 -0.5897949 1.2139257 0.073837236 -0.80163336 0.4285053 0.64197016 0.8968348 -0.052271843 0.69408566 -1.1115632 0.23924357 -0.092763245
ask -0.065864846 0.045772504 0.043626714 0.4326376 0.5876124 0.77041036 -0.72787565 -0.60178876 0.3818638 0.8303135 -0.35384735 0.028155873 0.5275898 0.36822712 0.8300418 -0.5318707 -0.0167223 -0.5774752 0.3828744 0.107321195 1.05792 -0.5669424 0.06690322 -0.50585514 0.45401418 -0.3996478 -0.4717836 -0.004944858 -0.25634563 0.029108228 0.89711887 -0.82730675 -0.020904785 0.044927284 -0.69723266 -0.2764681 -0.8931367 -0.13674279 -0.34525865 0.8255909 0.4004096 -0.30289286 0.58745086 0.5506566 0.9008084 -0.5719621 -0.26806632 0.14354666 -0.27240792 0.67078817 0.3463441 0.90162325 -0.8794697 -0.2322029 -0.5906536 -0.1313537 0.35288668 -0.12906076 0.54138744 0.72674716 -0.8743971 0.67901367 0.04424676 0.2813587 -1.2891645 0.29612347 0.03227794 -0.84928846 -0.036917325 0.3314539 0.018691288 -0.66895616 -0.28917223 -0.048071153 0.36838555 -0.34119374 -0.10263577 -0.6253446 -0.38837698 0.28472027 0.3176585 1.1380011 0.35930753 -0.4987037 0.2999545 0.9429495 0.16687566 -0.4801967 -0.7269503 0.15311222 -0.86831254 -0.301465 0.10061982 0.7072213 -0.08833948 0.38868484 -0.029425992 -0.6036961 0.28014973 -0.16846289 -0.06197895 1.0429046 0.52641636 -0.39472654 0.13371256 0.17021714 0.045568988 -0.85069364 -0.6529575 0.5145874 -0.1433032 0.6173744 0.06462763 -0.12350993 0.35002834 -0.16213064 0.599133 -0.05180921 0.46378157 -0.93863314 0.18136258 0.56728 0.8083638 0.24713008 0.9921307 -0.06671716 0.5470375 -0.27665785
manager 0.113202974 -0.22100984 -0.5313996 0.33797827 1.3508546 0.9568184 -0.9930095 -0.9373989 0.8885857 1.0800236 -0.44529292 -0.9042543 0.597112 0.46752095 1.3826729 0.05970247 -0.27368084 -0.32884315 0.36643112 0.25210503 1.240881 -0.9114552 -0.56539947 0.33952758 0.30932415 -0.62054574 -0.92034584 0.5324153 -0.12141838 0.15610605 0.7906977 -0.9238033 0.09936958 0.41535404 -1.2840611 -0.11867477 -1.3869228 -0.104040354 -0.44937223 1.0907465 -0.27375212 -0.7288957 0.5002054 0.44130182 0.70115685 -0.72359514 0.46997532 -0.027874338 -0.95957303 1.1091791 0.55503786 1.0828184 -0.9202427 -1.1309917 -0.87490004 0.15690935 -0.22409238 -0.11421141 0.7277087 0.6777265 -1.5489973 0.068490036 -0.054015033 0.273033 -1.5268122 0.6741494 0.4863611 -0.3624412 0.52585137 0.11043842 0.27805218 -0.78238314 -0.7203714 0.79493374 0.7368822 -0.04248277 0.5901035 -0.80716616 -0.33188358 0.26142085 -0.23653363 1.1758817 0.81027555 -0.37989566 0.3100671 1.1065016 0.560268 -0.51224047 -0.9939136 -0.59308153 -0.5360842 0.06278824 0.016174149 0.6196245 0.09340988 0.20431817 0.07889349 -0.21261823 0.42587137 -0.26400787 0.061338007 0.58220935 0.95899683 -0.65980875 0.19155492 -0.40650478 0.43627998 0.19356214 -0.31532133 0.24656026 -0.39401454 0.23759003 0.19652902 -0.13051185 0.27973488 -0.64017886 0.3057851 -0.16043325 0.4587818 -0.64600503 -0.15356609 0.20701379 0.658353 0.56038004 0.7962522 0.20319842 0.8041273 0.10498869
there -0.5302084 -0.3460901 0.35919538 -0.3141372 -0.30423516 0.66879004 -0.2271417 -0.17861646 0.006407944 0.3392481 -0.61610657 -0.6991885 0.467266 0.36864755 -0.5828994 -0.5634691 -0.08270981 0.05782985 0.5670162 0.35015744 0.39687535 0.37756965 0.3703999 -0.19318767 -0.18068893 -0.13245654 0.24210353 0.50970995 -1.0613916 0.04244407 0.11135782 0.20679279 -0.35638353 0.1186572 -0.9528643 0.6688596 -0.81654876 0.59515816 0.040337324 -0.22036682 -0.15637906 -0.36451477 0.051769145 0.13748567 1.1243618 -0.5990368 -0.23725526 0.35434029 0.17210929 -0.13570936 -0.38539028 0.5078931 0.16702387 0.10335626 -0.39721477 -0.5235808 0.18118422 0.21200117 -0.52356684 -0.16122036 -0.38443682 0.011364022 0.12514356 -0.2757909 0.19309084 -0.13753662 -0.41115206 0.580424 -0.63509214 0.13379551 0.079961434 -0.024193805 0.50947934 0.5894644 -0.49541193 -0.490958 -0.032178205 0.022324616 0.11718238 0.23347132 0.260047 0.21643549 0.25911435 -0.42016515 -0.6690977 0.32043615 0.2286957 0.06589428 0.52191615 0.35035947 0.44081223 -0.08291852 0.034476552 0.64349943 0.4472705 -0.27470386 0.08021711 -0.0888977 -0.16050209 -0.54774296 0.045574564 -0.04491214 0.29921877 0.020209497 0.09027757 0.26892513 -0.1755687 -0.340622 -0.16617997 0.31476998 0.0729608 0.314792 -0.055753294 0.060545508 0.68144214 -0.34400657 0.060486317 -0.7029977 -0.39976302 0.49276596 0.14194098 0.068455376 0.036430098 0.71110797 0.6580613 -0.6137373 -0.13038513 0.034223232
then -0.27309754 -0.10880917 0.1020733 -0.06385349 0.3051854 -0.00022797904 -0.5001759 -0.30683166 0.110265404 0.20707256 -0.23621371 0.21365005 0.015993364 0.5857011 -0.12259321 -0.31717604 0.27978328 -0.5720004 0.5150809 -0.2220693 0.20700647 -0.47337693 0.13758698 0.0187493 0.1075884 -0.09928781 -0.017619519 0.3042584 -0.16642588 0.09494199 0.660987 -0.48588678 0.31557825 0.4416518 -0.5033258 -0.13749261 -0.55731606 -0.21757011 -0.1303813 0.42000568 0.08772789 -0.45715517 -0.05046944 -0.08152151 0.51082337 -0.16693203 0.052454714 0.3323469 0.13355616 0.74247044 0.18134661 0.061603453 -0.16409336 -0.15027224 -0.37700364 0.4079447 0.28792667 -0.15898405 0.30077013 0.6788243 -0.005782962 -0.09088743 -0.07258381 0.031131549 -0.7235956 0.052656308 -0.077694684 -0.29310477 -0.021015987 -0.20977223 0.08488778 -0.5224513 -0.15371908 0.011480176 0.27944857 -0.2973269 0.16404161 -0.11675406 0.019870946 0.038052086 0.17527395 0.67639506 0.13170002 -0.51975083 -0.15532507 0.59689194 -0.51128566 -0.15231246 -0.32004493 -0.10231495 -0.6277559 -0.09780074 -0.09569044 -0.03446164 0.1562638 0.20134982 -0.25660846 -0.36265904 -0.43635765 0.23329929 -0.08417796 0.642476 0.6421515 0.13723153 -0.2063185 -0.25413606 -0.24098663 -0.5272194 -0.040179502 -0.12029991 -0.26744935 0.19757648 0.054510195 -0.48257938 0.3487313 -0.30859533 0.119204886 0.6372738 0.48491082 -0.57797474 0.18671001 -0.045827076 0.31879595 0.103921175 0.84238434 -0.68624145 0.4832353 -0.14622279
meeting 0.09666439 -1.0933691 -0.2718555 0.5765255 1.3951913 0.79609925 -0.19563396 0.009018647 1.2946488 0.61845165 -0.41100904 -1.313798 -0.5378201 0.6379637 0.31888026 -0.112597205 0.080014564 0.49019894 0.2972258 0.7390707 -0.42918703 -0.16328768 0.14841634 -0.5655952 -0.5798115 0.23277664 0.31516466 -0.14162247 0.20251937 0.85764754 -0.45069486 -0.71808267 0.41282976 0.55993235 -1.3783476 -0.5201355 -1.4475749 0.3811791 -0.77477 1.0696397 0.15524167 -0.40440124 0.5473091 0.47286397 0.19492261 -0.9661367 0.07736498 -0.19008577 -0.6648731 0.28519922 0.40417826 0.050479528 -0.5257024 -0.9698938 -0.019509083 0.2174697 -0.10133855 0.7342217 -0.028799128 -0.013305375 -0.6836313 0.33171913 0.4060814 0.37736318 -0.73980033 0.5119141 0.9167014 0.47771904 -0.71101147 1.066095 0.07942091 -0.17738932 -0.9113636 0.7614751 0.12974791 0.34197837 -0.22520241 0.011953228 -0.122883774 -0.13383357 -0.0646934 0.13464259 0.48465553 -0.51532465 -0.25644955 -0.035058465 0.34385008 -0.47002795 -0.13622223 0.56792843 0.23916504 -0.35484043 -0.6468011 0.052279316 -0.61204183 0.10779966 0.32679927 -0.080310464 1.003462 0.21425067 -0.5281575 0.5628909 0.30763966 -0.07464429 -0.5954321 -0.91868085 0.7569563 0.77919453 -0.87007713 0.27817148 0.52358097 -0.08139954 0.5575291 -0.5253847 0.3006454 -1.0439129 0.38550293 -0.7385509 0.6236148 0.27803403 -0.12687175 -0.7402142 0.3046874 0.8899555 0.920052 0.20434953 0.30885094 0.070536
them -0.3903128 -0.35546547 0.06354798 -0.020698674 0.5721648 0.55252945 -0.5258979 -0.5139055 0.45545998 0.62088746 -0.3365901 -0.08874436 0.3230196 0.41589868 0.07434415 -0.47177678 0.0947595 -0.39035395 0.79941356 -0.19145148 0.08763982 -0.6290073 0.17125258 0.005302267 0.11302199 -0.47202784 -0.04504228 0.2784243 0.10322328 -0.086488195 0.51246613 -0.6711689 0.048110317 0.38437116 -1.0848408 0.09979647 -1.1837642 -0.10465103 -0.08471829 0.39843413 -0.043360412 -0.70063114 0.021640185 0.603483 0.6744777 -0.19221616 0.30882028 0.39137328 -0.17035621 0.9015276 0.48063692 0.18786635 -0.36656997 -0.1369394 -0.51512337 0.03653672 0.1908111 -0.019022185 0.2592738 0.429979 -0.46971712 0.11981824 -0.2800068 0.013064627 -0.7381611 0.21395318 0.24314933 -0.4791235 -0.063201785 -0.053657357 0.06739877 -0.58801436 -0.7003444 0.38141748 0.24966225 -0.528912 0.5775105 -0.055177886 -0.17983323 -0.014035989 0.080427065 0.70103335 0.16560091 -0.34970048 -0.23379676 0.48863795 0.18396957 -0.4597511 -0.34769842 -0.34110215 -0.2750369 -0.37228227 -0.32012498 0.0018584944 0.06219909 -0.19094995 -0.18893515 -0.23749693 0.062242337 -0.08450087 0.071731664 0.545667 0.79772353 0.03331187 -0.11061139 -0.2353072 0.009134035 -0.21940196 -0.6161861 0.37691584 0.26619652 0.18295741 0.30459782 -0.30735824 0.5126605 -0.569211 0.1395703 0.25614578 0.3301787 -0.10181466 -0.084679514 -0.22367696 0.5038052 0.32622722 0.4903032 -0.24081019 0.292762 -0.020742537
new -0.5325568 -1.3316863 -0.55282915 -0.21503267 0.2147406 1.8318229 0.15070319 -0.40762484 -0.105977066 0.31295592 -0.29875013 -1.3338966 1.2234575 -0.050998647 0.36701262 -1.2285048 1.0091776 0.868455 0.38775927 1.7269821 0.25604695 0.09986803 -0.09759648 -0.46254373 -0.29966584 0.4068576 0.95860463 0.11335512 -0.07719067 -0.15148616 -0.9270262 0.03885611 -0.17072321 -0.3098041 -0.8430037 -0.23750922 -1.0582128 0.36921158 -0.14091565 0.49859244 -0.3618284 -0.014009056 0.22588772 0.7639438 0.29363182 -0.4246561 1.12547 -0.85206044 -0.9305282 -0.1459628 -0.1600532 0.9210827 -0.16318098 -0.4069527 -0.2894428 -0.056413673 -0.70589876 -0.043513652 -0.43943858 -0.65889794 -0.08002057 -0.39497128 -0.25380465 -0.8733961 0.13578089 0.27429804 0.191435 0.9991824 -0.38881752 0.64300096 -1.4042674 0.33068725 -0.17751102 0.1265199 -0.8363425 -0.0032341166 0.027364692 0.52720875 0.28097966 0.32816797 -0.1872171 -1.290613 0.13429533 0.6251784 -0.07050859 -0.8873963 1.6177055 0.447429 0.7113363 0.40102836 1.4367348 1.5082998 0.4908655 0.14832288 -0.69510955 -1.2933552 -0.10531001 0.79996157 1.2617522 -0.32415658 -0.82494015 0.466968 1.189039 0.80612534 -0.4529056 -0.09295298 0.5749682 0.14057748 -0.856865 0.096935034 -0.25378618 0.33384904 0.37116703 0.087946616 1.587781 0.6274544 -0.23107234 -1.8677566 -0.21857941 0.610829 -0.22042951 -0.18658435 -0.24083418 0.87821275 -0.7216079 0.34861457 -0.8185894 0.012376121
like -0.480793 -0.85350955 -0.3130943 -0.29038677 0.09059422 0.97825015 0.187867 -0.38738242 -0.28159484 0.10736943 -0.25960943 -0.39314678 0.50420666 0.22810158 0.08199437 -0.4171598 0.6286688 0.44575784 0.2054693 0.8253773 0.09787682 0.087605126 -0.27795857 -0.33695507 -0.015466641 0.3918093 0.62455213 0.106440365 -0.0437094 -0.1238565 -0.4823759 0.117538154 0.24347036 -0.014451108 -0.16438699 -0.40658024 -0.29908395 0.2805352 0.04566004 0.19116645 -0.22687306 0.023903709 0.26644787 0.24909203 0.5361239 -0.06387889 0.39905325 -0.3152343 -0.1759026 -0.079027876 -0.35759822 0.49101186 0.043220304 0.11219486 -0.0014130916 0.21158694 0.06296078 -0.1455186 -0.15206818 -0.05959969 0.42653686 -0.33483428 -0.17610708 -0.58912355 -0.06445271 0.23184104 -0.06975428 0.29526842 -0.23306693 0.11111971 -0.4962546 0.49885026 0.15859455 0.021305144 -0.72341466 0.225591 0.0055185175 0.022160921 0.056296755 -0.029657643 0.011628221 -0.7639816 0.06621703 0.039184254 -0.10602235 -0.19068444 0.4844368 0.25546864 0.24906293 0.109244406 0.38940942 0.80003864 0.09538734 0.23922907 0.059150226 -0.6815503 -0.22806267 0.592801 0.51350784 0.08707339 -0.41610134 0.33429304 0.8720454 0.6471428 -0.59421664 -0.20621707 0.12497077 -0.2140351 -0.41413507 -0.25933367 -0.5235367 0.23860338 0.16358188 -0.15344311 1.3456074 0.63811564 -0.26465106 -0.99713266 -0.049574256 -0.19508621 -0.1385651 0.170373 -0.059831347 0.322901 -0.059291396 -0.037953306 -0.33082718 -0.02944333
up -0.15644582 -0.14175849 0.12133824 0.114637904 0.33238226 0.35849115 -0.28173736 -0.13565709 0.46845812 0.24624798 -0.16555102 -0.22725257 0.18040612 0.41669637 -0.06777526 -0.4080191 0.5486415 -0.5891831 0.4542086 0.07475332 0.1837917 -0.114010036 0.65303105 -0.5076213 0.4223551 0.10315061 0.07551216 0.029521007 -0.2844837 -0.051424492 0.21855476 -0.45618087 0.10879497 0.18325773 -0.5377997 -0.4228438 -0.5534721 -0.122811794 -0.281546 0.5173253 0.38118556 -0.15148504 0.27869266 0.09654315 0.09061911 -0.30680674 -0.027281623 -0.35810456 -0.18767883 0.45819637 0.0010924399 -0.044907514 -0.40622717 -0.13566184 -0.5211288 0.19048756 0.035396837 -0.0015563819 0.03181922 0.1795369 -0.29590687 0.26864526 0.21313486 0.124162264 -0.40712464 -0.06148359 0.039626356 -0.1975532 0.007812902 0.38708672 -0.26060492 -0.23191048 -0.14039159 -0.20764783 -0.018349878 -0.14147952 -0.23150927 0.07562459 0.20803094 0.30010676 0.031654008 0.057896182 -0.05876881 -0.4400795 -0.1856386 -0.0087752575 -0.06450752 0.101616874 0.22797397 0.20582312 -0.019184899 0.28613687 0.18504605 0.108382754 -0.5231702 0.17273232 -0.30253103 -0.1338478 0.07052961 -0.24546772 -0.3451136 0.9125623 0.31461254 0.16666023 -0.17296919 -0.030735292 0.15493086 -0.41406882 -0.2606513 -0.26655605 0.4233196 0.22556904 -0.105286196 -0.17176062 0.188163 -0.55659163 0.28817543 0.15779933 0.27950376 0.03702337 0.14046201 -0.67603934 -0.22081612 0.25038627 0.7090485 -0.14851196 0.012794523 -0.16591491
will -0.1252453 0.020734893 0.1346634 -0.06213995 0.36176443 0.11654447 -0.1567998 -0.2246978 0.46999475 0.03945737 -0.05391992 -0.22604765 -0.042372853 0.26057914 -0.32236335 -0.07886733 0.34086037 -0.2793951 0.4703843 -0.10351841 -0.29210255 0.31434718 0.26897204 -0.2810245 0.35985532 -0.12602209 0.32453763 0.30844593 -0.51557493 0.12694836 0.28300405 -0.24933264 0.2214496 0.35718876 -0.600517 -0.019992447 -0.30653045 -0.15880676 -0.26153094 0.24682237 0.01087837 -0.19791947 -0.19007634 -0.07672506 0.15878119 -0.28553054 0.17764187 -0.32466793 -0.17404121 0.44511026 -0.13091376 -0.47767588 -0.31352216 -0.14208841 -0.18275435 0.3084765 -0.15109818 -0.04859009 0.0030799566 0.15727323 -0.30927718 -0.09264456 0.037286315 0.2847501 -0.21082322 -0.110394344 -0.05404102 0.24381791 0.055223856 0.12445198 -0.084355734 0.02483496 0.13448262 -0.08367119 -0.1746442 -0.41352394 -0.25914246 0.4098277 0.31079602 -0.019306516 0.3254964 -0.2747381 -0.2875581 -0.15426591 -0.10498892 -0.21949925 -0.21135129 0.023470234 0.2451388 0.22976482 -0.0021705169 0.102890514 0.21108927 0.14986585 -0.36657408 0.08768792 -0.2162331 0.16295949 -0.13562007 0.033485524 -0.31419417 0.6900861 0.47709483 0.61206365 -0.4325816 -0.21568017 -0.1994556 -0.30536097 -0.20957476 -0.10145006 0.14888735 0.19128568 -0.059191015 -0.33901972 0.5379126 -0.25754085 0.29571724 -0.16330597 0.44831568 -0.14492097 0.19218819 -0.51297724 -0.22144629 0.5109579 0.77425313 -0.52121866 -0.113928646 -0.3250138
can -0.082247816 -0.10068231 0.36812526 -0.13528351 0.3997851 0.07010586 -0.2832558 -0.47522303 0.11306746 0.012923712 0.22023277 -0.12600219 0.52634007 -0.098202564 -0.38313615 -0.05263733 0.26932728 -0.029680062 0.5017846 -0.11945994 -0.11087592 0.32527754 -0.18417023 -0.01613893 0.31216747 0.010443636 0.1563781 0.5834241 -0.58336234 -0.40443677 0.14577067 -0.17620428 -0.17979331 0.011761013 -0.23475471 -0.0600066 -0.29399225 -0.0151865 0.04920169 -0.06545833 -0.16079158 -0.20091532 -0.58442974 -0.07085613 -0.012617887 0.07719275 0.22415051 -0.19047149 0.0108103305 0.5073748 -0.7545443 -0.22703704 0.43160766 0.31508738 -0.2966208 -0.10214809 -0.23512645 0.13722089 -0.40133697 -0.42416686 -0.43334493 -0.22600213 0.007971144 -0.21094403 -0.104023576 -0.11436823 -0.14264826 0.05549906 0.059898954 -0.11773547 -0.117870994 -0.051269177 0.26284757 -0.18124245 -0.28040096 -0.22443175 0.06603124 0.4005021 0.3375561 -0.18232395 0.15153317 -0.092250474 -0.2890572 -0.064192474 0.064931415 0.08718002 -0.059062365 0.20856178 0.2918771 0.04279295 0.1374307 0.4588937 0.7337343 0.54740083 0.23272748 0.0013239017 -0.3527753 0.24981774 -0.57609594 0.0026812498 0.1041092 0.81184083 0.8609831 0.62495416 -0.34443763 -0.17913751 -0.43819463 -0.5334684 -0.042983193 0.3119646 -0.09643612 -0.24352315 -0.2307212 -0.2922365 0.9313727 0.06803376 0.14839156 -0.33043978 0.3372834 -0.50811195 -0.04926696 -0.13114244 -0.24653481 0.3511077 0.37525263 -0.88655674 -0.08596033 -0.11276995
more -0.310091 -0.051333133 -0.110488385 -0.25629756 -0.27456507 0.44705456 -0.018076716 -0.23538671 -0.26114288 0.07985495 -0.25612015 -0.4669343 0.51293325 -0.115450695 -0.021781294 -0.66102934 0.35770914 0.017748883 0.26472372 0.59844 0.31604803 0.119589604 0.20894599 -0.08432272 -0.018867377 0.121266045 0.2319642 0.1165243 -0.43449417 -0.034786448 0.01517 0.29036215 -0.19292496 -0.24388935 -0.4250641 0.25364146 -0.26754975 0.022805566 -0.036367413 0.04800955 -0.108680725 -0.0048912144 -0.07025494 0.12949803 0.32114798 -0.34506586 0.40576285 -0.31349775 -0.36317512 -0.11028021 -0.016302418 0.36791638 -0.21936713 -0.2413808 -0.17378817 0.080156274 -0.4609541 -0.2822873 0.00929333 0.09249858 -0.2255582 -0.1387518 -0.127482 -0.23226401 0.1300991 -0.082990564 -0.18342055 0.5483117 -0.025005577 0.12739561 -0.6947662 0.029057298 0.3098582 0.031637095 -0.22331849 -0.3023205 -0.09167996 0.26691854 0.026471455 0.2537303 0.19760294 -0.27409855 0.032270104 0.23013684 -0.013259219 -0.29911774 0.48204467 0.072434716 0.38924304 0.3120048 0.34095874 0.6410622 0.57386166 0.22960222 -0.5216019 -0.39276165 -0.07497138 0.19374876 0.22261457 -0.26167873 -0.32840246 0.098053515 0.4656441 0.36450264 0.032138918 0.38388973 0.049761366 -0.14649193 -0.23709868 0.009535363 -0.09872349 0.29730737 0.008056225 0.18076798 0.39645523 0.26949364 0.10189123 -0.5822266 -0.15022431 0.24416435 0.1400367 0.051799413 -0.05058035 0.45353863 -0.081243694 -0.08797855 -0.29617205 -0.22899042
plans -1.232026 -0.14875399 -0.07986465 -1.1213137 -0.48460668 0.65422565 -0.40905163 -0.2738599 -0.6863046 0.36108932 -1.0920745 1.2863257 0.40115085 0.6188177 0.081943646 -0.53614324 0.24086444 -0.7080561 0.5965345 -0.03925228 0.8838309 -0.36093202 -0.07991134 0.4409719 -0.7252469 -0.35183024 -0.10317893 1.0250759 0.050429773 0.49219343 1.7317295 -0.49422374 0.8696778 1.2016529 -0.84533644 0.74818367 -0.35460478 0.29450777 0.4846168 0.3254545 -0.26546037 -0.81967455 -0.5615379 -0.4184053 1.3361171 0.050866935 0.3788082 1.6211677 0.74416304 0.71106976 0.732322 0.5426244 -0.2502615 -0.13010344 -0.7440416 0.46810684 0.4338758 -0.17572859 0.42736116 1.9476895 1.1864091 -0.8809998 -0.39408517 -0.72584105 -0.79205185 -0.099177495 -0.9347484 0.41474247 -0.35816517 -0.6174511 -0.049786586 -1.1673149 0.35012397 0.26501122 0.58457345 -1.0247921 0.73231894 -0.44010076 -0.047222335 0.64820516 1.0332749 0.7933834 0.34318623 -0.059061404 -0.4095402 1.0245955 -0.39735848 -0.21235014 -0.5957061 -0.44472462 -0.67374116 -0.124460556 -0.73857903 -0.63754827 1.4308016 -0.005605223 -0.122147396 -1.1870041 -1.4079937 0.16451764 0.40656674 0.2541517 1.2423806 -0.16186905 0.15986095 -0.1576707 -0.8622065 -0.41619566 0.38654718 -0.37790054 -1.1845187 0.6543818 0.42675206 -0.778353 0.94480705 -0.099319085 -0.75245476 1.2887915 -0.083598375 -0.45987362 0.34231028 0.61287844 0.76153594 -0.05377351 0.7397281 -1.0829152 0.21637532 -0.18133572
take -0.31252176 -0.10744844 0.042628977 -0.3472785 -0.41484177 0.23808177 0.035304148 -0.1969871 -0.53594697 -0.14462471 -0.19127658 0.76521736 0.18446644 0.111762404 -0.0054259733 -0.7642531 0.59357756 -0.623368 0.16492467 0.37266013 0.48164037 -0.3063477 0.17810829 -0.2048556 -0.4482759 0.41657606 -0.12133502 0.12582296 0.16505483 0.43932045 0.8661868 -0.051491037 0.51983845 0.27129412 0.33628806 -0.12256928 -0.104035355 -0.2554334 0.19091627 0.59722716 0.72217524 -0.11836421 -0.1768046 -0.35865897 0.08329111 0.018561916 -0.079569615 0.37202272 0.3224977 0.21401455 0.63243264 0.2387274 -0.18624842 0.15129028 -0.2730392 0.55449635 -0.17001611 0.1880924 0.40405482 0.99777937 0.8312191 -0.15496187 0.025701493 -0.2878004 -0.6177823 -0.23651518 -0.4128803 -0.1374306 0.0706383 -0.17901662 -0.60153854 -0.74954164 0.19172798 -0.5021592 0.4083649 -0.10071187 -0.102864966 0.03408055 -0.38452783 0.3441678 0.5672652 0.410234 0.14327897 0.17655236 0.29169402 0.18952574 -0.44627124 -0.27939662 -0.25928846 0.20009708 -0.41383561 0.42759594 0.3666335 -0.20057976 -0.038559217 0.13215858 -0.24826804 -0.90794486 -0.30367583 0.25793946 -0.12443839 0.77270305 0.54306364 0.24132921 -0.16134009 -0.10497493 -0.40685105 -0.1312913 0.0918391 -0.39222887 -0.35132155 0.41044933 0.1978165 -0.32699454 0.16682108 0.26851475 -0.113349825 0.53527826 0.20193045 -0.49083376 0.6337826 0.0045173964 0.36186332 -0.29778016 0.29793513 -0.2808274 0.30091298 -0.47286087
because -0.51431465 -0.75649357 -0.3060828 -0.33846945 0.2835715 0.2525948 -0.015239729 -0.34697342 -0.12652124 -0.16158435 -0.37399855 -0.6252579 -0.38246506 0.7421002 -0.35323986 -0.10970373 0.3708579 0.67165 0.28182492 0.57972866 -0.35897383 0.27407122 -0.23825909 -0.13744262 -0.30025995 0.51926607 0.8089868 0.16287005 -0.11743917 0.44140673 -0.3880582 0.31132898 0.45147532 0.22054522 -0.3341562 -0.2653673 -0.10808541 0.19027326 -0.18160404 0.19783744 -0.50821817 -0.13497216 0.18292378 -0.21365154 0.43083143 -0.41534564 0.4182371 -0.03211969 -0.1601312 -0.121817134 -0.25777695 -0.08919213 0.23223169 -0.37952223 0.37244904 0.643545 0.070978135 -0.18105793 -0.036615346 0.27299052 0.6138214 -0.53654814 -0.038034048 -0.30236027 -0.013629853 0.205657 0.107499085 0.7388393 -0.44191104 -0.073212005 0.015779268 0.6007712 0.25302258 0.48513845 -0.5151808 0.30524537 -0.18017516 0.10075285 0.1292331 -0.4056233 -0.10379435 -0.46283373 0.07428669 -0.49034315 -0.31953752 0.05857456 -0.35855412 0.18731557 0.2845743 0.2143742 -0.1195702 0.45843196 -0.38289875 -0.07381379 0.046284 -0.38663635 -0.07839303 0.6066288 0.12680292 0.5433416 -0.48143807 -0.057106 0.68317187 0.7304161 -0.81811434 -0.55920464 0.07266541 0.14492933 0.009120953 -0.50421834 -0.6808536 0.12731089 0.2444628 -0.40979007 0.8785651 0.3347015 -0.23848327 -0.7398066 0.09613216 -0.23856486 -0.08156933 0.16317558 -0.0071429624 0.4760823 0.383737 -0.40094396 -0.12754795 0.08822058
know -0.6017493 -1.062969 0.46908796 0.021186009 0.37310198 1.2212114 -0.09355558 -0.5795596 0.5325048 0.3991334 -0.32620093 -0.7165706 0.5387874 0.5808158 -0.59266216 -0.5544922 0.2291423 0.40663463 0.8352386 0.32794803 -0.37699282 0.15777557 0.09435532 -0.66130316 0.20836417 -0.31069982 0.6044488 0.39365223 -0.765387 -0.067209564 -0.40762204 -0.21590292 -0.14603312 0.07741221 -0.96633816 0.23645137 -1.4238538 0.43101123 -0.0745991 -0.009774706 -0.33169702 -0.51184136 0.2320565 0.93630683 1.2352881 -0.42137858 -0.34426776 0.09817826 0.10502966 0.27990988 -0.4935661 0.27512705 0.2373681 0.57170355 -0.12951082 -0.6133395 0.60892665 0.4448977 -0.5989353 -0.6020399 -0.23216431 -0.012910868 -0.18710521 -0.06879753 -0.3194478 0.23612471 0.006748768 -0.11317992 -0.74749786 0.007787694 0.4487936 0.10967486 -0.16991474 0.48639697 -0.9019945 -0.14857082 0.16199094 0.3040762 -0.003862634 -0.26894018 0.16205052 -0.057295207 0.17526592 -0.29706746 -0.55152285 0.30009866 0.2843043 -0.25192094 0.08289186 0.017737946 0.45143846 -0.3813183 -0.31497326 0.6821671 0.66976976 -0.674093 -0.11325909 0.24276215 0.595783 -0.15186748 -0.021511568 0.4105106 0.41243473 0.3178174 -0.5425682 -0.33966416 -0.112994336 -0.57673025 -0.92293423 0.81118613 0.1860151 0.33223292 0.13415493 -0.25093436 1.2723424 -0.11669804 0.0868087 -1.2900608 -0.07767926 0.07043572 -0.07205662 -0.008023348 0.17989898 0.6745548 0.41414106 -0.26129663 -0.27120933 0.04015259
but -0.5456524 -0.50606 -0.1301331 -0.32184047 0.027064085 0.25436264 -0.03391283 -0.20786346 -0.0134451715 0.096137896 -0.47674757 -0.32420287 -0.17187318 0.603019 -0.41572478 -0.17965677 0.36171257 0.2751191 0.3920814 0.3605144 -0.19534291 0.21538901 0.05703242 -0.16290593 -0.21122971 0.070616424 0.5449042 0.27774963 -0.4086751 0.3484475 -0.017447362 0.108896226 0.21633443 0.3060614 -0.5214888 0.16697131 -0.3751227 0.2215002 -0.14418803 0.052883796 -0.40663183 -0.25462508 0.021599164 -0.13213058 0.7942095 -0.3567486 0.17867929 0.1607578 0.023050252 0.05611261 -0.11298537 -0.010701382 0.029347168 -0.08236673 0.07803898 0.29551077 0.297323 -0.17994086 0.011454023 0.4185025 0.4659284 -0.3806011 -0.09365145 -0.10733601 -0.057611868 0.102848 -0.11021013 0.61819506 -0.47757757 -0.121351145 0.06553147 0.23439881 0.2998389 0.39531252 -0.4156774 -0.044787016 -0.08159685 0.1101563 0.13354766 -0.17195031 0.23520045 -0.19805671 0.14985271 -0.34182736 -0.47612277 0.13836567 -0.30146268 0.0027884347 0.13279215 0.144611 -0.015807588 0.07550622 -0.3632205 0.008012732 0.22774343 -0.33375356 -0.12471591 0.25417635 -0.021693116 0.25915194 -0.2978352 -0.07498104 0.39375794 0.46033743 -0.42205942 -0.23307502 -0.0301886 -0.20223488 -0.090671115 -0.21607073 -0.44212553 0.2901469 0.10368028 -0.39302933 0.73514384 0.15570964 -0.12444779 -0.39103934 0.017414788 -0.036512353 0.089936875 0.110925704 0.041766707 0.44316858 0.45228735 -0.56646013 -0.14923425 0.04333022
other -0.36869836 -0.20420104 -0.016499251 -0.30603516 -0.5222126 0.90643585 0.2057811 -0.021017963 -0.58287275 -0.07253004 -0.21490164 -0.15522169 1.3018825 -0.39131984 0.16715914 -1.0976624 0.622259 -0.22417438 0.21826069 0.9528214 0.68139 0.021627061 0.29527527 -0.05492607 0.013651381 0.25331578 0.2109982 0.2360142 -0.47325435 -0.44467732 0.020008456 0.25490788 -0.28040728 -0.38639084 -0.2574118 0.15449248 -0.26986763 0.087057 0.24267974 -0.06229464 0.21517792 0.30983695 -0.058925316 0.077298455 0.35556516 -0.17181613 0.18366663 -0.6654885 -0.2439385 -0.08377888 -0.25963312 0.742552 -0.1282561 0.0079940595 -0.38279346 -0.11031598 -0.41444775 -0.30578408 -0.26439255 -0.18049277 -0.24472503 -0.17559326 -0.07539567 -0.61243725 0.15284342 -0.22567545 -0.43831173 0.44270754 0.2760694 0.22052199 -1.0412443 -0.13365008 0.36939603 -0.4066277 -0.35260308 -0.40416774 0.15073365 0.34577048 0.10652595 0.4698054 0.26020187 -0.61857224 0.016081534 0.682257 0.0089368075 -0.47582632 0.7729856 0.26364756 0.6255281 0.28685027 0.7460394 1.1377443 1.1320441 0.18721505 -0.32271823 -0.6271946 -0.12646987 0.0791534 0.23017575 -0.2970958 -0.33667296 0.37682128 0.532998 0.29131767 0.1900513 0.62491363 -0.07941495 -0.44663268 -0.43360466 -0.014562516 0.09819802 0.31641895 -0.027083075 0.42652273 0.6483486 0.423955 -0.09082048 -0.64471626 -0.3106006 0.41023037 0.26339203 -0.067943536 -0.32915005 0.1561325 -0.3361384 -0.04586812 -0.30853185 -0.32296568
feel -0.45932156 -0.8545974 -0.55506855 -0.021412492 0.5792125 0.958019 -0.1574753 -0.6212782 0.12534751 0.5564612 -0.6594168 -0.955244 0.08225323 0.6483191 0.5105191 -0.050625492 0.056412283 0.90355706 0.20791636 0.88827676 0.29372913 -0.053886596 -0.5113068 -0.3287193 0.034344282 0.135932 0.4841019 -0.21659373 -0.005782811 0.26673165 -0.42142376 0.034681115 0.09612712 -0.0062343087 -0.6815137 -0.3698159 -0.59328556 0.33449885 -0.3330805 0.35791972 -0.69585377 -0.2111681 0.78459275 0.4818535 0.95715845 -0.5609723 0.29437032 -0.17228647 -0.5632108 0.012840938 -0.13372067 0.629576 -0.39450383 -0.48156482 0.33392578 0.30938086 0.43869594 -0.43738875 0.18783738 0.39278316 -0.04514052 -0.15052767 -0.25706264 -0.20993915 -0.54623514 0.7405422 0.456451 0.20909281 -0.4133544 0.12536006 0.14467868 0.568863 -0.13230456 0.79458755 -0.42211613 0.38530493 -0.015504107 -0.40954977 -0.28643507 -0.4125959 -0.10397124 -0.0778509 0.45454007 -0.4736671 -0.13144942 0.40450963 0.2965263 -0.17164129 -0.23174085 0.041271944 -0.35826752 0.15212488 -0.5654938 0.5399068 0.22851937 -0.5146183 0.13210031 0.7753323 0.9203231 0.30283806 -0.45505878 -0.035366476 0.7416157 0.31011808 -0.60185444 -0.2501419 0.5074066 0.022514809 -0.6048903 0.044556443 -0.76796633 0.41063178 0.2791065 -0.14253278 1.032739 0.50501865 -0.13511075 -1.2888458 -0.03325081 -0.5337927 -0.45470703 0.8332276 0.52746147 0.5014388 0.28536502 0.116568804 0.058674492 0.25337252
want -0.5478434 -0.8329238 0.13004592 -0.119085185 0.3532282 0.4674733 -0.19318423 -0.36511996 0.12335532 0.10028692 -0.29483527 -0.124213316 -0.3172386 0.87879527 -0.44020134 -0.31522274 0.675946 0.073775575 0.5628739 0.02338714 -0.4490826 -0.30361852 0.09095062 -0.39040148 0.21851264 0.23276874 0.63398594 -0.052110728 -0.027675768 0.047366526 -0.3608484 -0.2852217 0.39309025 0.31100783 -0.4243437 -0.5819853 -0.8434061 0.07980601 0.03213582 0.37163064 -0.08610742 -0.44400936 0.32120484 0.303625 0.56027406 -0.126314 0.009416375 0.29435292 0.10978779 0.3641692 -0.22968283 -0.026231999 0.21065666 0.33640367 -0.22055851 0.36132607 0.6680583 0.10848084 -0.11605847 0.15043595 0.6324646 -0.12785473 -0.022074906 -0.22275664 -0.41806805 0.35459113 0.117644995 -0.2785003 -0.556621 -0.031037953 0.105303645 0.1168321 -0.33641502 0.21716811 -0.44295368 0.31054223 0.069024615 -0.14207044 -0.09167036 -0.15925112 -0.100824036 0.054674774 0.12744345 -0.83674955 -0.5575199 0.2812063 -0.3647877 0.04970223 -0.023437643 -0.03300024 -0.17030719 0.13008985 -0.6306897 -0.040083267 0.20293851 -0.31946304 -0.3947463 0.15637028 0.21778871 0.16513404 -0.24459514 0.47138634 0.5797057 0.354529 -0.7522221 -0.6028421 0.15177122 -0.37012115 -0.3279684 -0.30397567 -0.2148749 0.2448191 0.13766779 -0.5189602 0.8748602 -0.123688534 -0.2206536 0.02713222 0.31232718 -0.20802066 -0.078676246 -0.29204598 0.010547249 0.2210988 0.4250516 -0.30785927 -0.06886613 0.084708795
first -0.22942595 0.16573931 0.32822794 -0.19031076 0.19193192 -0.45451713 -0.522898 -0.43048075 -0.07852031 0.04220411 -0.123983964 0.7592993 -0.17474869 0.0652233 -0.19734414 -0.71310854 0.19455941 -0.95612925 0.6421917 -0.24023412 0.23553585 -0.50839245 0.25348684 0.26570305 -0.6358494 0.19891286 -0.38057154 0.25391942 0.04539661 0.56884193 1.369372 -0.4837787 0.5313294 0.552246 -0.256916 0.0114801265 -0.49151942 -0.42822498 0.18799676 0.8700705 0.7095724 -0.6010609 -0.7096292 -0.23865734 -0.056828897 -0.10558176 0.036539156 0.98979086 0.16054194 0.7151254 0.95315415 -0.102599956 -0.043678194 -0.16191866 -0.4159865 0.66765654 -0.37421393 0.40728173 0.53469926 1.2374996 0.18757993 -0.0479459 0.10044486 -0.13153702 -1.0687544 -0.11247854 -0.087997146 -0.41146722 0.16657792 -0.29319143 -0.3687219 -1.3336387 -0.2805552 -0.21247786 1.1172856 -0.39137977 0.26652542 0.08838486 -0.38063365 0.041500174 0.492661 1.3058167 0.23741172 -0.29156864 0.33210048 0.5487686 -0.8410614 -0.46585962 -0.41651312 0.25150117 -1.0292381 -0.13123989 0.35028812 -0.18781592 -0.04979437 0.50186193 -0.081753545 -1.3584914 -0.8469449 0.3888193 0.12981509 1.0798347 0.92382985 0.3685666 -0.17841813 -0.5037669 -0.6790594 0.016668752 0.12220919 0.19267869 -0.025779951 -0.009708382 0.4057225 -0.5548831 -0.04852255 -0.39136565 0.32367602 0.9556254 0.7198397 -0.90791446 0.58034474 -0.23930448 0.7926005 -0.058393467 0.8227172 -0.82516354 0.83369446 -0.46909907
enjoyable -0.9272288 -1.08931 -1.5063796 -0.6454289 0.36861855 1.0161002 -0.3416529 -1.0987705 -1.2307234 0.11437781 -0.9005673 -1.3665011 0.1608706 0.7526496 0.8034674 -0.13348962 0.5288779 1.554526 -0.16239844 2.0265672 0.9331059 0.09685028 -1.2396296 -0.07659737 -0.25081277 1.2674956 1.0118207 -0.3225253 0.19027609 0.31955385 -1.0382535 0.862711 0.7046776 -0.38083956 0.0795703 -1.0058959 0.1949938 0.22297613 -0.18355341 0.8069983 -1.0439587 0.18945992 0.7959274 -0.32426772 0.80123895 -0.46304107 1.1935374 -0.62835366 -1.1113998 -0.37632686 -0.71749675 1.1387875 0.09820273 -1.06689 0.4839086 1.2073735 -0.20029232 -0.99445605 0.32579622 0.649801 0.7563499 -0.85325855 -0.26194236 -1.2249236 -0.32871765 0.97389466 0.17081141 1.047512 -0.37854686 0.075009726 -0.9759887 1.2240617 0.73674524 0.6693863 -0.8616417 1.2447569 -0.44255385 -0.68001235 -0.2466569 -0.50554687 -0.3463379 -0.6735647 0.58372605 -0.53777266 0.16892855 0.33443582 0.3360177 0.48733962 0.03403915 0.35440168 -0.71288824 2.1240506 0.2877401 0.91592515 -0.14409027 -0.7159748 -0.02342786 1.3970712 0.8894847 0.6603881 -1.0066365 -0.10977425 1.9333396 1.0140978 -1.1979775 -0.49667892 0.6475616 0.06468513 0.053624798 -1.1458488 -2.4841237 0.46167752 0.13252379 -0.162238 2.0272803 1.8598155 -0.8477908 -1.9494612 -0.12366552 -1.2780609 -0.63857275 1.5598379 0.5568022 0.36520395 -0.21895567 -0.034603164 -0.1590635 0.42434943
